the 0.702965 -0.093212 -0.421502 -0.430059 -0.464135 0.481630 1.592970 -1.726543 -0.512899 0.380612 -1.945353 -0.338315 1.430657 -0.375235 -2.058234 -0.022857 1.194399 -0.102196 -0.212738 -0.351185 -0.048301 -1.227926 -0.059437 -0.115413 -1.058568 0.393416 -0.131893 0.271143 0.331271 -0.292186 -0.455772 0.206692 -0.969767 -0.868569 0.975427 -0.166179 -1.395876 -0.861436 -0.055565 -1.277792 -0.181928 -1.009301 -0.434904 0.359189 0.276807 -0.665100 -0.996642 -0.675003 0.325484 1.462228
of 0.884634 0.203253 0.157106 -0.956005 -0.728620 0.610926 0.986567 -1.909298 -0.876596 -0.526278 -2.351771 -0.612168 1.716644 0.930533 -1.270684 0.507109 1.049233 -0.229050 -0.267653 -0.234254 0.560040 -1.294639 -0.146166 0.563139 -0.941034 -0.155207 -0.034580 -0.345439 0.204213 -0.087708 -1.124793 0.737027 -0.704237 -0.865766 0.520319 0.048073 -0.947288 -0.682506 -0.057214 -1.740848 -0.078818 -0.289924 0.281471 0.738650 0.735467 -0.805766 -0.648153 0.142328 0.502270 1.917613
and 1.326043 0.076161 -0.382782 -0.596114 -1.175702 0.534568 0.996065 -2.316663 0.357866 -0.028964 -1.826414 -0.696742 0.664634 0.304075 -1.134688 0.156576 1.089936 -0.004039 0.452379 0.520526 0.258255 -1.184426 -0.177922 -0.446500 -1.051260 -0.277503 -0.831623 0.031265 -0.722015 -0.537441 -0.474508 -0.034675 -1.161292 -0.854417 -0.202397 -0.574567 -1.509474 0.026217 -0.497085 -1.214494 0.087534 -0.099933 -0.205880 -0.423508 0.559384 -0.484571 -0.079502 0.014675 0.540046 1.720140
one 1.277726 -0.523376 -0.018594 -0.600049 -0.305334 -0.152411 1.930711 -1.014481 -0.607419 -0.170871 -1.699715 -0.328760 0.486256 0.799370 -1.030798 -0.320622 0.190243 0.637875 -0.589136 -1.177343 0.877323 -1.341060 -0.463261 -0.208792 -0.945907 -0.024090 0.043658 0.423856 0.474397 -0.258417 -1.402336 -0.834873 -0.720606 -0.679475 0.408519 -1.013328 -2.215043 -1.013781 -0.691487 -1.243170 -0.167737 -0.478750 -0.095671 -0.500811 -0.275553 -0.761544 0.428510 -0.170463 1.318194 1.965285
in 1.012589 -0.211826 -0.246242 -0.454375 -0.967746 0.138617 1.729561 -1.234589 -0.415016 -0.344706 -2.229835 -0.504809 0.518287 0.265143 -0.850417 0.218999 1.524299 0.121327 -0.278063 -0.215960 0.247558 -0.287076 -0.737534 -0.406574 -1.056652 -0.886598 -0.130163 0.173491 -0.279535 -0.554550 -0.382084 0.055331 -1.128137 -0.778393 0.598053 -0.075262 -1.526548 -0.592485 -0.169966 -1.662201 0.463625 -0.857334 -0.176886 0.170321 0.082721 0.155830 -0.245586 -0.179879 0.593359 1.927639
a 1.024210 -0.519896 0.436252 -0.125435 -1.520187 0.122742 1.727575 -1.459607 -0.731076 0.416961 -1.908037 -0.292674 0.798532 1.100743 -0.935686 -0.811379 0.813778 0.765828 0.160116 1.116131 -0.279796 -0.905786 -0.718864 -0.099071 -0.532363 0.023314 -0.189146 -0.225946 -0.955368 0.788460 0.432528 -0.365505 -0.721000 -0.552073 0.892836 0.099983 -1.541995 -1.827683 -0.513375 -1.078705 0.062166 -0.482612 0.063480 0.849738 0.464603 -0.371650 0.141455 -0.714842 0.443200 1.811915
to 0.816280 0.161626 -1.420190 -0.169422 -0.803497 1.007723 2.298871 -1.182791 0.293315 -0.218303 -2.346652 -0.011696 1.238110 0.030678 -0.734344 -0.778007 0.183151 -0.339315 -0.132868 0.716689 0.854784 -0.433214 -0.584057 -0.094191 -0.471032 -0.051740 -0.792491 -0.315060 -0.332396 -0.956451 -0.414806 -1.000113 -1.408633 -1.141714 0.642132 0.552375 -1.615616 -0.770257 -1.080268 -0.461469 0.036411 -0.194307 -0.180667 0.704655 0.373046 -0.748530 -0.490241 0.191767 0.161001 2.030731
zero 1.765362 -0.888860 -0.412063 -0.552058 -0.272415 -0.533289 2.031622 -1.316413 0.202183 -0.269685 -1.469418 -0.838125 -0.133980 0.813350 -0.719438 -0.524126 -0.116607 0.572675 -0.768701 -0.903551 0.704719 -1.619644 -0.499482 0.325069 -0.926955 -0.288380 0.289609 0.276779 -0.158872 -0.227133 -1.535138 -1.570762 -0.574186 -0.793401 0.820399 -0.729580 -1.368378 -0.715697 -0.427934 -1.355752 -1.282440 -0.796346 -0.657048 -0.106525 0.088865 -0.113608 0.348583 -0.177126 0.884444 2.089520
nine 1.337486 -0.466049 0.381354 -0.119300 -0.400380 -0.244512 1.822413 -1.126174 -0.258309 0.362851 -1.626999 -0.478533 0.152732 0.512047 -0.999399 -0.305113 0.024650 0.464851 -0.481717 -0.858698 0.946852 -1.262655 -0.581609 -0.362427 -0.972382 -0.387207 0.117510 0.540419 0.237972 -0.337632 -1.609233 -0.857909 -0.686478 -0.131725 0.575770 -1.169822 -2.175176 -0.431924 -0.816366 -1.087370 0.026541 -0.884643 -0.344621 -0.436634 -0.764796 -1.094590 0.521320 -0.347869 1.367798 2.161526
two 1.702550 -0.771209 -0.831369 -0.555831 -0.422810 -0.396691 1.961655 -1.296481 -0.096170 -0.779301 -1.208861 -0.574101 -0.020160 0.792508 -0.811904 -0.559158 0.143713 0.626427 -0.557462 -1.188268 0.449970 -1.618285 -0.974556 0.266834 -1.079325 -0.116282 0.257400 -0.009458 0.086932 -0.432335 -1.821510 -1.003532 -0.593773 -0.726036 0.384581 -1.005053 -1.631229 -1.156833 -0.572146 -1.292132 -0.766221 -0.553693 -0.324654 -0.321856 0.119113 -0.330155 0.144701 0.150934 1.217386 1.914536
is 0.897970 -0.441064 -0.530184 0.022674 -1.631493 0.532925 1.419438 -1.546497 -0.525066 0.465507 -1.217980 -0.470988 1.608081 0.775916 -0.338683 0.186132 1.071081 0.063413 -0.191212 -0.443760 -0.040804 -0.787966 -0.672902 0.671281 -1.276758 -0.906876 -0.374542 -0.370588 -0.232042 1.091374 0.803108 -0.357252 -0.699159 -1.346166 1.149447 0.063232 -1.394596 -1.228104 -0.891150 -1.230912 -0.102391 -0.441284 -0.362185 0.795536 0.164141 0.714341 -1.178857 -0.072145 0.665989 1.777542
as 0.380239 0.426728 -0.511652 -0.173303 -1.424711 0.527652 1.295933 -1.817799 -0.048000 0.423378 -1.597389 -0.514705 1.061401 0.374239 -0.440444 0.306578 0.932537 0.002056 0.181666 -0.206200 0.332699 -1.332189 -0.575106 0.266970 -0.420882 -0.369977 -0.640938 -0.071752 -0.411125 0.304452 0.383999 0.212254 -0.969891 -0.816552 0.807370 -0.477447 -1.159826 -0.708786 -0.344821 -0.646105 0.291506 -0.534318 -0.055509 0.032056 0.141800 -0.625149 -0.808936 -0.193381 0.155495 1.966369
eight 0.968300 -0.624089 0.218114 -0.421857 -0.076995 -0.343683 1.653987 -0.940552 -0.187442 0.032035 -1.765791 -0.136890 0.244562 0.970226 -0.917089 -0.159479 0.056212 0.730082 -0.601546 -1.201674 0.986906 -1.373750 -0.474451 0.208416 -0.810589 0.057706 -0.000782 0.145529 0.100372 -0.604682 -1.508458 -0.893089 -0.493639 -0.447645 0.120206 -1.001688 -2.238961 -0.889145 -0.442563 -1.203771 -0.120854 -0.674154 -0.049132 -0.553158 -0.131599 -0.744946 0.738217 -0.290697 1.201011 2.126876
for 1.203442 -0.117144 -0.819150 -0.585082 -1.019524 0.805890 1.244252 -2.382128 -0.262851 0.291426 -1.617261 -0.274547 0.095345 1.196059 -0.510444 -0.504595 1.062218 -0.106808 -0.035394 0.415168 0.237703 -1.042506 0.047653 0.518063 -0.034926 -0.585392 -0.270404 -0.001854 -0.471242 -0.625777 0.140257 0.166801 -1.115863 -0.280609 0.897636 -0.257134 -1.409009 -0.938065 -1.072727 -0.329051 -0.209237 -0.635162 -0.584226 0.887718 0.042356 -0.589136 -0.266972 -0.200403 0.298165 2.024460
s 1.351052 -0.239881 0.107069 0.520545 -0.970433 0.168965 1.311125 -1.430400 0.471306 0.333043 -1.718782 0.428411 1.011528 0.211861 -0.326898 0.427300 0.985756 -0.215292 0.286414 0.445941 0.113203 -1.079055 -0.147077 -0.124181 -1.626954 -0.023204 -0.834680 0.361541 0.257446 0.690547 -1.808489 0.314105 -1.191536 -0.504655 0.837916 -0.521406 -0.590848 -0.885766 0.229977 -0.709639 -0.220355 -0.182598 -0.979977 0.834982 0.027057 -0.966242 0.117175 -0.394967 0.432542 2.686573
five 1.340119 -0.888108 -0.143896 -0.581060 -0.090104 -0.470110 1.991063 -1.092650 -0.090657 -0.207458 -1.557937 -0.528607 0.161414 0.967451 -0.596731 -0.526019 -0.092019 0.661056 -0.678172 -1.255305 0.838084 -1.666957 -0.567682 0.291223 -1.056896 0.139978 0.025083 0.000171 0.138112 -0.476779 -1.621455 -0.869269 -0.431438 -0.696745 0.213550 -0.666791 -1.877986 -1.083815 -0.185560 -1.168780 -0.654228 -0.837673 -0.209264 -0.661166 0.153206 -0.234941 0.594375 -0.007999 0.937491 2.199954
three 1.214625 -0.658240 -0.559002 -0.562253 -0.213058 -0.246476 1.874156 -1.144784 -0.232738 -0.556529 -1.439585 -0.181240 0.175375 0.991520 -0.613352 -0.480312 0.209501 0.663187 -0.535626 -1.234737 0.579902 -1.657110 -0.796651 0.324046 -0.899472 0.042181 0.029902 -0.078599 0.163045 -0.442945 -1.759208 -0.743898 -0.372884 -0.724575 0.175945 -0.833862 -1.963827 -1.175163 -0.461562 -1.131596 -0.417673 -0.650605 -0.067977 -0.724070 0.207402 -0.236902 0.337326 0.048233 1.100706 1.937864
was -0.367748 -0.384069 -0.172747 0.226397 -0.025851 -0.138469 2.336985 -1.456141 0.616993 0.981188 -1.769678 -0.562494 1.517402 0.748242 -0.225640 0.460487 0.810218 0.379149 -0.469259 -0.151578 0.270377 -0.582719 -0.728851 -0.326644 -0.862174 -0.088402 -0.325222 0.057328 -0.208733 -0.459806 0.404511 -0.433832 -1.510183 -0.153225 1.596045 -0.736264 -1.742483 -1.059463 0.278249 -0.741658 0.037060 -0.655682 -0.613006 0.242098 0.043599 -1.098599 0.125598 -0.882991 -0.257364 2.133586
by 0.590391 0.626546 -0.647945 0.071153 -0.529656 0.398244 1.598255 -1.694314 0.453438 0.888217 -1.502377 -0.532365 1.413729 0.607969 -0.837250 -0.119322 0.961621 0.082885 0.212304 0.393163 0.696724 -1.715374 -0.739954 0.349324 -1.311510 -0.379439 -0.144735 0.233863 0.097376 0.083360 0.440314 -0.204098 -0.860473 0.009473 0.904194 -0.848496 -1.197926 -0.700639 0.392331 -1.074641 -1.043425 -0.875531 0.433898 0.233652 0.251041 -0.849089 -0.330141 0.039915 -0.184416 1.394642
that 0.847280 -0.009790 -0.931730 -0.404562 -1.195382 1.083603 1.908059 -1.117742 -0.228666 0.016876 -1.536750 -0.766367 2.326904 0.321150 -0.164677 -0.437225 0.670538 0.086174 0.064606 0.238438 -0.184394 -0.824313 -0.193426 -0.157180 -0.162139 -0.328925 -0.961197 0.577828 0.230493 0.294951 -0.619694 -0.085157 -1.642512 -0.774829 0.714047 -0.300969 -1.188239 -0.962932 0.070683 -1.139560 -0.124989 0.027716 -0.026180 0.912676 0.007355 -0.406518 -0.693998 -0.452162 -0.430933 1.644425
four 1.101077 -0.739241 -0.317047 -0.614322 -0.155921 -0.418178 1.851006 -1.055204 -0.155995 -0.504862 -1.505855 -0.346243 0.135308 0.817692 -0.867396 -0.545066 0.052208 0.712085 -0.636746 -1.187841 0.627231 -1.676309 -0.710027 0.292858 -0.875768 0.255306 0.154594 -0.082450 0.151418 -0.359884 -1.766104 -0.754699 -0.600264 -0.674446 0.254398 -0.895028 -2.019347 -1.176850 -0.520959 -1.179103 -0.491862 -0.703643 -0.025593 -0.704029 0.161646 -0.531143 0.484765 0.056125 1.128764 2.102303
six 0.976272 -0.729944 -0.126621 -0.556445 -0.098378 -0.633680 1.819893 -1.021915 -0.128022 -0.280078 -1.561942 -0.265150 0.264440 1.031957 -0.881693 -0.399642 0.036114 0.640517 -0.682838 -1.188290 0.778885 -1.564689 -0.580929 0.217172 -0.868166 0.066550 0.048142 0.046622 0.174672 -0.459391 -1.648347 -0.863287 -0.497740 -0.477434 -0.029276 -0.718373 -2.133571 -1.114715 -0.163824 -1.086337 -0.246725 -0.733232 -0.047060 -0.638322 0.051295 -0.523259 0.676644 -0.142133 1.127425 2.211461
seven 1.043084 -0.659336 0.156426 -0.584006 -0.017908 -0.401174 1.905423 -1.032350 -0.209825 -0.158990 -1.483797 -0.154072 0.150441 0.872995 -0.851881 -0.382935 0.035456 0.543206 -0.618651 -1.102080 1.014439 -1.580649 -0.547380 0.271015 -0.770738 0.299459 -0.109215 0.192033 0.356421 -0.536785 -1.530187 -0.747366 -0.485764 -0.507722 0.072482 -1.052729 -2.176848 -0.977606 -0.442179 -1.077010 -0.213337 -0.603373 -0.035966 -0.793681 -0.276582 -0.675447 0.564058 -0.267551 1.146494 2.324861
with 1.460457 -0.362595 -0.315081 0.055527 -0.777102 0.270561 1.115693 -1.891795 0.388419 -0.662038 -1.206852 -0.199466 0.346899 -0.002862 -0.877479 -0.599610 1.134004 0.074940 0.342231 0.540409 -0.162324 -0.397109 -1.090243 -0.079471 -0.324764 0.140907 -0.471041 -0.357557 -0.813677 0.292559 -0.441699 0.034566 -1.365424 -0.767642 0.407168 -0.597782 -2.079961 -0.740840 -0.466226 -0.972823 0.150183 -0.545676 -0.298544 -0.340105 0.914950 -0.806531 -0.043141 0.359692 0.142525 2.111910
on 1.148211 -0.491588 -0.506679 -0.229412 -0.806317 0.576461 1.091242 -1.741149 0.654845 -0.621431 -1.981032 -0.484576 0.720613 -0.204367 -0.968380 -1.076148 1.058257 0.962907 0.081105 -0.402860 0.278445 0.048053 0.006757 0.350062 -0.967918 -0.295293 -0.053774 -0.355859 -0.069643 0.206157 -0.333696 -0.200733 -1.391617 -0.309770 0.282697 -0.568845 -1.126888 -0.657134 0.124211 -1.159925 -0.586165 -0.609893 -0.696769 1.170673 0.068748 -1.204880 -0.184606 -0.608133 0.671421 1.823634
are 0.730429 0.096600 -1.461621 -0.913942 -1.725510 0.877414 1.103803 -1.578684 0.097518 -0.656761 -1.136600 -0.549555 0.167523 0.032252 -0.626846 -0.543740 0.427195 0.031473 0.458696 -0.416020 -0.341683 -1.132732 -1.267628 0.446902 -1.070905 -1.106444 -0.847656 0.070633 -1.036031 -0.370914 0.704917 0.475941 -1.209112 -2.052844 0.284908 -0.209701 -0.709177 -0.707199 -0.243672 -1.562931 -0.559467 -0.880790 0.653072 0.184633 0.583130 -0.152350 -1.233520 0.369658 0.198508 1.427279
it 0.647797 -0.193436 -0.754246 -0.247609 -1.305660 1.008614 1.771023 -1.355984 0.160622 0.245810 -1.467634 -0.426984 1.677052 0.058650 -0.128525 -0.246820 0.755199 -0.027139 -0.404252 -0.009785 -0.135505 -0.509253 -0.167346 0.192245 -0.444300 -0.494679 -0.691581 0.059361 -0.070921 0.202572 0.390189 -0.370105 -1.102584 -1.053014 1.147632 -0.087577 -1.839960 -0.900900 -0.093481 -1.153729 0.307357 -0.022629 -0.558466 0.564020 0.203179 -0.107078 -0.541472 -0.740111 -0.061608 1.473882
from 1.524305 -0.288097 -0.690601 0.159192 -1.160494 0.403043 2.027230 -1.189689 0.101733 -0.248456 -2.011298 0.051829 0.489683 -0.108845 -0.943288 -0.626153 1.145795 -0.440952 -0.635155 -0.096822 0.891403 -0.997424 0.055204 0.038743 -0.524820 -0.689081 -0.822288 -0.736990 -0.217063 -0.505119 -0.242319 -0.266059 -0.285167 0.011984 0.586234 -0.151030 -0.780227 0.010451 0.595485 -1.673731 -0.155851 -0.701629 -0.352293 0.400131 1.110223 -0.089407 -0.430014 -0.451684 -0.272945 1.035683
or 0.904206 0.255118 -0.663707 -0.248300 -1.634567 0.926091 1.853472 -1.943878 -0.249163 0.237658 -1.932943 -0.129925 0.170516 0.620066 -0.833270 -0.394295 0.459633 0.029323 0.269305 -0.664819 -0.142893 -1.105191 -0.557135 0.287535 0.110263 -0.418833 -0.625958 -0.690263 -0.231225 0.674087 0.806774 -0.171854 -0.442448 -0.744487 -0.207674 0.060798 -1.050601 -0.326366 -0.548847 -0.581609 0.201291 -0.624005 0.921299 0.620232 0.926149 -0.278938 -0.935210 -0.079059 0.295325 1.107433
his 0.588269 0.027067 0.221696 0.531076 -0.166969 0.656364 2.035353 -2.032742 0.169569 -0.481654 -2.237549 1.091448 0.914076 0.625750 0.057986 0.038888 0.971525 -0.001687 0.498447 0.456326 -0.002622 -0.853980 0.316961 -1.398374 -0.750616 0.747197 -1.134771 -0.273687 0.143746 -0.555015 0.014198 0.561909 -1.239821 0.391373 0.535181 -0.944742 -0.893885 -0.897479 0.580911 -1.042682 0.899331 -0.065168 -0.863364 0.999849 -0.089914 -1.493400 0.732338 -0.460738 -0.217100 2.444615
an 1.498873 -0.204203 -0.731619 -0.249857 -0.490916 -0.119120 1.572126 -1.129164 -0.325467 1.071199 -2.007099 -0.679979 1.076391 1.521031 -0.744937 0.138760 0.928662 0.196154 -0.205875 -0.570586 0.322696 -0.774681 0.050725 0.564817 -0.284288 -0.224932 -0.157700 -0.561034 0.214460 0.654908 0.192437 0.473253 -0.454290 -0.325344 1.111243 -0.205985 -1.555428 -1.174091 -0.816551 -0.927430 0.552296 0.540773 -1.236618 0.450922 0.645172 -0.883097 -1.590076 -0.125078 -0.400782 1.666034
be 0.459826 0.011370 -1.570159 -0.068340 -1.310272 1.175948 2.067978 -1.254554 0.310144 0.230422 -0.994540 -0.585115 1.422405 0.778445 -0.324184 -0.470390 -0.087648 0.209347 -0.139461 -0.268435 -0.361860 -0.895879 -0.898429 0.168833 -0.681475 -0.852394 -0.448269 -0.085633 -0.337090 -0.057498 1.367742 -0.535387 -1.409996 -1.110304 1.252309 -0.448047 -1.312545 -1.002356 -0.529508 -0.794797 -0.196889 -0.379113 0.419028 0.897709 0.351898 -0.269417 -0.913480 0.151292 -0.049280 1.372258
this 0.771077 0.014670 -0.518777 -0.120247 -1.041769 0.939388 1.536333 -1.207753 -0.500581 0.073149 -1.630079 -0.381780 1.915352 0.484856 -0.542669 -0.548100 0.969785 -0.059233 -0.208218 0.002825 -0.055010 -0.665293 -0.673509 0.289857 -0.286424 -0.089922 -0.271794 -0.107579 0.081730 0.283738 0.130451 -0.106309 -1.019200 -0.808606 1.369983 -0.086068 -1.605944 -0.879313 -0.155839 -0.894848 0.022007 0.071604 -0.436955 0.984333 0.252413 -0.058771 -0.594125 -0.585456 -0.046742 1.748256
which 0.573268 -0.120097 -0.653834 -0.140569 -1.070171 0.614375 1.565092 -1.002172 -0.267208 -0.017849 -1.503829 -0.545157 1.259685 -0.176423 -0.718639 -0.149955 1.161092 0.237686 -0.116236 0.047373 -0.170485 -0.545092 -0.675231 0.329804 -0.589584 -0.196712 -0.570116 0.044841 -0.005286 -0.055520 -0.215791 -0.246685 -0.929297 -0.712733 0.579605 -0.188105 -1.880502 -0.770730 0.166105 -1.346048 0.051433 -0.292439 0.080773 0.855263 0.296996 0.047141 -0.862301 -0.651195 -0.061655 1.324633
at 0.919863 -1.605059 -0.707770 -0.449652 0.214598 0.324724 1.676628 -0.802470 0.544759 -0.669537 -2.548672 -0.478024 0.874990 -0.202148 -0.257561 -0.386098 1.060360 0.562660 -0.627711 -0.183904 -0.061499 -0.454761 0.092698 0.325240 -0.744211 -0.395037 -0.308507 -0.194929 0.335891 -0.400163 0.199104 -0.143407 -0.403926 -0.741947 0.413114 -0.064894 -0.258110 -1.242271 0.439207 -1.062581 0.394592 -0.697532 -0.890773 0.693347 0.495781 -0.697867 -0.170598 -0.044132 1.061871 1.921337
he 0.152359 -0.531468 -0.203196 0.145474 -0.200072 0.149130 2.314641 -1.393869 0.017411 -0.385738 -1.824658 -0.326022 1.483502 0.165550 0.397606 -0.021070 1.065321 0.302565 0.005861 0.522284 0.068872 -0.445454 0.505518 -1.429772 -0.312138 -0.249566 -1.295372 -0.050117 0.403269 -0.487358 0.579157 -0.157426 -1.143467 0.159261 0.614068 -1.000411 -1.677760 -1.135877 0.177888 -1.200308 1.193498 -0.417391 -0.419674 0.359337 -0.266456 -0.964435 0.695108 -0.317389 -0.120870 2.180691
also 0.672807 -0.257801 -0.567396 -0.167620 -1.226858 0.044150 1.064694 -1.508895 -0.002675 -0.231455 -1.226472 -0.385187 1.101891 -0.049739 -0.571852 0.202751 0.781097 0.216331 0.145352 0.422863 0.488659 -1.029598 -0.438092 0.531823 -0.876294 -0.679398 -0.248456 0.055070 -0.416059 0.168112 -0.282700 -0.022069 -1.152948 -0.814546 0.768446 0.203028 -1.394181 -0.210902 -0.108507 -0.962062 -0.068392 -0.670448 0.262226 0.353757 0.013436 0.172491 -0.735996 0.039739 0.074805 2.095605
not 0.265207 -0.019239 -1.372361 -0.224022 -1.521068 1.398214 2.017110 -1.385088 -0.027369 -0.019887 -1.117814 -0.458606 1.689118 0.157116 -0.051065 -0.628083 -0.070326 -0.122107 0.158308 -0.460831 -0.187513 -0.417086 -0.586421 0.290188 0.020298 -0.761086 -0.872524 0.370793 -0.144835 -0.394252 0.352596 -0.077872 -1.465753 -0.860876 0.766884 0.103656 -1.176237 -1.023398 -0.707799 -0.780317 0.085912 0.041901 0.559114 0.637752 0.203163 -0.398712 -0.615889 -0.006427 -0.134515 1.913085
have 0.557801 -0.055163 -1.087809 -0.462597 -1.268268 0.543329 1.773509 -1.400595 0.371285 -0.456818 -1.114694 -0.468712 1.080032 0.034995 -0.328649 -0.543295 0.023983 -0.122644 0.100563 0.537629 -0.230273 -0.729259 -0.901793 0.107573 -0.295009 -0.408677 -0.713750 0.840695 -0.697500 -0.256004 0.203829 -0.126762 -1.626339 -1.169795 0.504031 0.097271 -0.833148 -0.511124 0.396113 -1.293065 -0.106190 -0.632470 0.665451 0.543824 0.103228 -0.066718 -0.611510 -0.241254 -0.617854 2.028663
were -0.278910 0.185494 -0.906672 -0.756629 -0.258324 0.432583 2.038100 -1.517361 0.890169 -0.026009 -1.703863 -0.589656 0.181551 -0.221095 -0.727171 -0.134070 0.375243 0.372149 0.018221 -0.137032 -0.221453 -1.071433 -0.908594 -0.175502 -0.722876 -0.561148 -0.798054 0.777512 -0.660941 -1.674224 0.479362 -0.072958 -1.799258 -0.647266 1.005774 -0.697163 -0.929360 -0.385940 0.705719 -1.183349 -0.741971 -0.782345 0.459926 -0.145117 0.672367 -1.474313 -0.091390 -0.234397 -0.778597 1.498682
has 0.945336 -0.577841 -0.637212 0.414495 -0.978772 -0.084801 1.401962 -1.544005 0.605780 0.502658 -0.759044 -0.698710 1.215875 0.400356 -0.254450 0.089651 0.524299 -0.202099 -0.186156 0.505477 0.009095 -0.318494 -0.868376 0.146530 -0.716308 -0.261766 -0.378509 0.293510 -0.509233 0.581630 -0.192324 -0.312273 -0.918199 -0.695026 1.236647 0.271052 -1.284268 -0.557183 0.217936 -1.588246 0.079365 -0.836886 -0.086358 0.825188 -0.287553 0.658585 -0.590152 -0.458199 -0.362077 2.103944
but 0.393475 -0.170278 -0.547342 -0.209602 -0.809803 0.832844 1.865248 -1.475299 0.391825 0.032803 -1.409937 -0.393084 1.314786 0.139992 -0.166405 -0.441084 0.612245 -0.076923 -0.123195 -0.357384 -0.174648 -0.561715 -0.438639 -0.105416 -0.220455 -0.070647 -0.695012 0.080650 -0.326982 -0.423207 0.231055 0.139895 -1.097537 -0.908835 0.680377 -0.049801 -1.387052 -0.818619 -0.103294 -0.859280 0.484245 0.071102 0.083986 0.486325 0.387434 -0.312352 -0.049500 -0.349744 -0.390039 1.723201
other 1.017252 0.153864 -0.943621 -0.780830 -1.488974 0.597698 0.870742 -1.602451 0.055926 -0.657704 -1.594256 -0.136878 0.340456 -0.104241 -0.816955 -0.318946 0.979335 -0.297685 0.421242 0.103415 0.268797 -1.058593 -0.235296 0.730238 0.045282 -0.511190 -0.655839 0.083996 -0.572153 -0.371582 -0.105228 0.599953 -1.063865 -1.123862 0.173908 -0.077764 -0.964233 -0.153334 -0.125416 -1.310594 -0.196283 -0.605498 0.689238 0.045103 0.396560 -0.538562 -1.097286 0.042121 -0.315333 1.810090
their 1.077030 0.166517 -0.824934 -0.561656 -0.800287 1.133942 1.741091 -1.937249 0.306889 -0.571760 -1.652136 0.572780 0.194822 -0.530192 -1.233409 -0.508019 0.406821 -0.743672 0.609169 0.091425 -0.468861 -0.560660 -0.169557 -0.414593 -0.252064 0.407194 -0.719994 0.095513 -0.815223 -0.992597 -0.052795 0.056256 -1.261705 -0.492012 0.592192 -0.063390 -0.335312 -0.174828 -0.046577 -0.737386 -0.186619 -0.070531 -0.169265 0.816103 0.502605 -1.060318 -0.382844 -0.117243 -0.345119 2.147446
its 1.088026 0.045149 -0.560747 -0.352435 -0.751567 0.726622 1.349587 -1.632872 0.295034 0.655580 -1.380223 0.094164 0.872770 -0.133999 -1.172972 0.248095 0.900300 -0.715167 -0.336727 -0.222202 -0.260896 -0.047252 -0.328666 0.479543 -0.710100 0.789361 -0.493088 0.042518 -0.817783 -0.303705 -0.555952 0.176111 -0.387989 -1.032822 1.423979 0.085661 -0.758017 -0.410955 -0.039173 -1.255929 -0.229308 0.059373 -0.657140 1.209018 0.446812 -0.113373 -0.695283 -0.817072 -0.167410 1.924997
first 0.211117 -0.050444 -0.231175 -0.144399 -0.849757 -0.467376 1.660892 -0.760997 -0.601199 0.120387 -1.460490 -0.061148 0.537454 0.163847 -1.000605 -0.655024 0.780718 -0.105009 -0.364159 0.024499 -0.128670 -1.225753 -0.575521 0.312690 -0.712588 -0.262606 -0.135909 0.002658 0.412686 -0.796865 0.094282 0.259646 -0.884585 0.021239 1.190908 -0.669006 -1.297462 -1.423980 0.080014 -0.513642 -0.024388 -0.418320 -0.620348 0.193885 -0.241644 -0.656714 -0.140267 -1.136362 0.595050 2.259604
they 0.259810 -0.097315 -1.142268 -0.604781 -0.949642 0.949269 2.285715 -1.280841 0.489171 -0.803918 -1.590823 -0.422569 0.909496 -0.797925 -0.354491 -0.684457 0.291249 -0.081057 -0.048951 -0.012873 -0.313054 -0.491434 -0.284638 -0.333418 0.133250 -0.587442 -1.066681 0.489232 -0.389352 -0.784665 0.572683 -0.338578 -1.443559 -1.235241 0.354165 -0.164616 -1.008669 -0.660064 -0.150566 -0.757699 0.157097 -0.335739 0.462527 0.413862 0.403451 -0.477531 -0.366290 -0.304517 -0.360341 1.544535
some 0.738291 -0.006004 -0.700579 -0.683778 -1.567390 0.703044 1.168274 -1.604154 -0.046983 -0.431093 -1.825765 -0.219583 1.037913 0.183632 -0.133791 -0.808741 0.565754 0.045911 0.434805 0.166497 0.051129 -1.051063 -0.357445 0.737860 0.351126 -0.516467 -0.323418 0.559531 -0.600221 -0.231192 0.095536 0.498199 -1.120109 -0.960206 0.373813 0.377458 -0.717703 -0.348004 0.280175 -1.222386 -0.165033 -0.294250 0.595336 0.329797 0.228081 -0.331466 -0.644427 -0.177971 -0.670970 1.870092
had 0.166444 -0.267312 -0.224304 0.012472 0.086370 -0.041987 2.278377 -1.382041 0.880139 -0.082412 -1.336089 -0.530065 1.161807 0.084968 -0.443827 -0.094499 0.491413 0.056737 -0.060825 0.701466 -0.061954 -0.566112 -0.498760 -0.781642 -0.209423 0.195025 -0.922284 0.490832 -0.065745 -0.575976 -0.100803 -0.538582 -1.576831 -0.250229 1.105862 -0.647801 -1.205484 -0.625073 0.681282 -0.761561 0.054733 -0.452584 0.193173 0.299989 0.558264 -0.772247 0.659270 -0.718017 -0.985287 2.134714
all 0.732570 -0.038494 -1.031974 -0.862488 -1.178893 0.973881 1.451224 -1.661697 -0.163792 -0.782382 -1.178926 -0.218808 0.498897 -0.315033 -0.855239 -0.461782 0.412923 -0.294309 0.181926 -0.485828 -0.391515 -0.940055 -0.200564 0.330514 -0.224609 -0.839386 -0.651513 0.183542 0.018307 -0.613661 -0.328852 0.269411 -0.859590 -0.579257 0.599398 -0.172141 -0.736886 -0.819803 -0.178825 -1.223861 -0.453215 -0.020118 0.446988 0.383570 0.326174 -0.776178 -0.544125 0.172605 0.004713 1.677811
more 0.737323 0.102754 -0.630813 -0.976675 -0.931690 0.862646 0.761175 -1.225452 0.608753 -0.001384 -1.711080 -0.528894 0.503409 0.601179 0.165132 -0.970104 0.269287 -0.010797 -0.025917 -0.025181 -0.228887 -0.983266 -0.457330 0.142164 0.225891 -0.197901 -0.480973 0.008766 -1.104033 -0.200267 0.277546 0.245338 -0.590550 -1.509225 1.092089 -0.013166 -1.773994 -0.527422 0.008314 -1.347988 0.204565 0.271365 -0.382250 0.650328 0.487314 -0.452395 -0.414940 0.176606 -0.457994 1.988160
most 0.466197 -0.012649 -0.568284 -1.105888 -0.873202 0.172847 0.686765 -1.362615 0.236982 -0.001640 -1.771829 -0.437767 0.574482 0.183535 0.019764 -0.357243 0.576549 -0.068641 0.227623 -0.233411 -0.203858 -1.231549 -0.307264 0.445207 -0.330744 -0.279412 -0.129520 0.399377 -1.002666 -0.395166 0.183946 0.947468 -0.780023 -1.399632 0.908605 -0.029653 -1.033377 -0.359351 0.112425 -1.302500 -0.010069 -0.316487 -0.147165 -0.007695 -0.083473 -0.427647 -0.567397 -0.464462 -0.295332 2.153669
can 1.076709 0.002039 -1.458242 -0.374660 -1.443435 1.465312 1.519068 -0.933794 0.143414 -0.407509 -1.206955 -0.172737 0.895307 0.225184 -0.848755 -1.062678 0.031717 0.026051 -0.048303 0.335328 -0.490963 -0.935632 -0.516527 0.506306 -0.165449 -1.002804 -0.160514 -0.128727 -0.401096 0.243263 0.756047 -0.828606 -0.925009 -1.515573 0.772193 -0.008075 -1.372883 -0.285465 -0.649622 -0.389934 0.178539 -0.287221 0.645146 1.265228 0.695355 0.425861 -1.040339 0.503653 0.160862 1.005047
been 0.036111 -0.123122 -0.976277 0.179852 -0.751507 0.197525 1.917608 -1.425624 0.930232 0.423656 -1.014563 -0.972387 1.138631 0.549288 0.042484 -0.157081 0.177333 0.089975 -0.171943 0.329740 -0.057706 -0.691467 -1.088129 0.100416 -0.733348 -0.521133 -0.290098 0.387240 -0.459561 -0.373796 0.915798 -0.319044 -1.554186 -0.504585 1.277875 -0.347902 -0.975024 -0.370443 0.514980 -1.416545 -0.334870 -0.873777 0.163619 0.414771 -0.101135 -0.143021 -0.559640 -0.485352 -0.926100 1.788579
such 0.995965 0.522377 -0.821935 -0.639992 -1.471619 0.829896 0.593846 -1.349674 0.057738 -0.153909 -1.800230 -0.137144 0.474421 0.122118 -0.389415 -0.148595 0.746844 0.038024 0.356465 0.314486 -0.012881 -1.276772 -0.594864 1.009876 0.164886 -0.650367 -0.428249 0.503755 -0.540244 0.072033 -0.003607 0.587989 -0.982061 -0.722502 0.300322 -0.406897 -1.029674 0.112224 -0.349195 -0.631468 0.065078 -0.143242 0.811688 0.425046 0.348935 -0.535618 -0.993414 0.047601 -0.184511 1.560282
many 0.582181 0.243180 -0.821654 -0.684298 -1.299492 0.400901 0.783453 -1.458710 0.323819 -0.620078 -2.054359 -0.246500 0.535526 -0.210025 -0.200779 -0.433062 0.662737 -0.045562 0.523429 0.442147 -0.048010 -1.117989 -0.174606 0.363066 0.186427 -0.811337 -0.352859 0.726610 -0.680089 -0.634206 -0.036930 0.547903 -1.069760 -1.187798 0.665423 0.212260 -0.584831 -0.174383 0.318996 -1.343230 -0.120198 -0.509253 0.337592 0.064449 0.046459 -0.743637 -0.666402 -0.030360 -0.824567 2.077898
who 0.102821 -0.227638 -0.469831 -0.151067 -0.040415 -0.289039 1.969333 -1.053582 0.246864 0.008457 -1.232568 -0.087251 1.506195 -0.299080 -0.110930 0.044307 0.362250 -0.301540 0.996466 0.238002 0.636760 -1.268403 0.614462 -1.013258 0.395131 -0.400282 -0.960175 0.005626 0.230833 0.026915 0.320140 -0.369123 -0.982586 -0.450248 0.663349 -0.393143 -0.613923 -0.944273 -0.203691 -0.364442 0.021654 -0.356964 0.841778 -0.526542 -0.206687 -1.079916 0.172231 -0.073535 -0.756611 2.567819
new 0.746088 -0.187933 0.065330 -0.078788 -1.086563 -0.033738 0.351896 -0.967321 0.350606 -0.151576 -2.202019 -0.189266 0.578410 -0.443975 -1.722140 0.255770 0.844207 0.323276 -0.090042 -0.024930 0.853714 -0.117451 -0.405640 -0.021477 0.114627 -0.731719 -0.372591 0.372769 -0.412041 -1.359957 -0.976365 -1.019368 -0.196761 -0.471853 0.810759 -0.367104 -1.278581 -1.192821 -0.146946 -0.929765 0.210024 -0.347962 -0.530430 0.983141 -0.118885 -0.586335 -0.315295 -0.813214 0.202703 1.788702
used 0.347958 0.108630 -0.893893 -0.420296 -1.584268 0.517123 1.045167 -1.523378 -0.214895 -0.000301 -1.174366 -0.164239 0.511630 0.183886 -0.534908 -0.657010 1.068825 0.768441 -0.067181 -0.005478 0.455320 -0.961860 -0.643185 1.221430 -0.061247 -0.769284 -0.598643 -0.254492 -0.887761 0.064468 0.771076 -0.360276 -1.650797 -0.975033 0.812866 -0.301790 -1.879688 -0.146946 -0.008581 0.346990 -0.265862 -1.080324 0.225280 0.571642 0.809342 0.473610 -0.900887 0.061229 0.029842 1.385419
there 0.620773 -0.650307 -0.545108 -0.315555 -1.014463 0.711478 1.532632 -1.243831 -0.191500 -0.555764 -1.687015 -0.425104 0.940603 0.343105 -0.375657 -0.712239 0.500929 0.105497 -0.148931 -0.180167 -0.271375 -0.276235 -0.888522 0.318573 -0.011077 -0.714987 -0.641176 0.310552 -0.034653 -0.091041 -0.053229 0.389489 -0.825472 -1.201640 0.578984 0.128455 -0.745559 -0.901845 0.055573 -1.248815 -0.124371 -0.093453 0.149007 -0.014407 0.055329 0.457167 -0.268802 -0.398029 0.003129 1.807398
after 0.594613 -0.015984 0.240746 0.231107 -0.452361 -0.203136 2.123988 -1.358071 0.067770 -0.064363 -1.917795 -0.665163 0.650387 -0.003796 -0.636620 -0.832297 1.108592 -0.126013 -0.643434 0.211595 0.076540 -0.347275 -0.488147 -0.331910 -0.477374 0.079880 0.020752 -0.445357 0.842528 -0.957031 0.041814 -0.040275 -0.831795 0.101120 0.878047 -0.659532 -0.684006 -0.669194 0.124317 -0.599553 0.605542 -0.764160 -0.507489 0.285240 0.505230 -0.845119 0.778798 -0.397340 -0.235924 1.651731
when 0.902358 -0.264068 -0.501410 0.013055 -0.475812 0.519884 1.762597 -1.111425 0.372046 -0.142913 -1.295062 -0.623349 1.273403 -0.108514 -0.435670 -0.791727 0.933333 -0.062034 -0.209841 0.102790 -0.066680 -0.695588 -0.388095 -0.318145 -0.157143 -0.280117 -0.413007 -0.454108 0.711450 -0.099379 0.351084 -0.426646 -1.047762 -0.715632 0.936630 -0.572928 -1.406808 -0.880915 -0.017108 -0.323398 0.798979 -0.463550 -0.231770 0.460652 0.683427 -0.309310 0.148659 -0.197835 -0.120813 1.164836
into 0.507458 0.443815 -0.184102 0.184126 -1.126414 0.535391 1.924966 -0.299023 0.306503 -0.079208 -1.676034 0.038572 0.296922 -0.469199 -1.444762 -0.656307 0.919723 -0.366053 -0.341197 0.516846 -0.243928 -0.503359 -0.674685 -0.100752 -0.417233 -0.535645 -0.816277 -1.246988 0.079272 -0.522434 0.125271 -0.749187 -0.171334 -0.091062 0.595757 -0.127456 -2.109629 -0.350959 0.261786 -2.016826 0.103999 -0.258232 -0.102893 -0.047072 1.387054 -0.221569 -0.358850 -0.143693 -0.216268 0.912791
american 1.900178 -0.513927 0.358135 0.195358 -0.506775 -1.538827 -0.006883 -0.716941 -0.628599 1.067470 -1.603447 -0.251929 0.399284 -0.515528 -1.285800 -0.633344 -0.253627 0.493931 0.132079 0.500313 2.088057 -1.860902 0.016079 -0.377005 -0.073366 -0.489505 -0.981170 1.024047 -0.303727 0.316786 -0.351531 -0.597575 -0.791419 -0.108013 0.219163 -0.478235 -0.797809 0.052886 -0.531157 -0.446879 0.132595 -0.350752 0.505972 -0.894711 -0.779878 -1.151712 -0.191965 -0.445339 0.607554 2.642991
time 0.516370 0.337601 -0.535555 -0.659038 -0.522337 0.563420 1.121993 -1.434338 0.117974 -0.437436 -1.182196 -0.573448 1.047792 0.286728 -0.769761 -0.669913 0.640504 -0.089735 -0.417728 0.299513 -0.272855 -0.702646 -0.350927 0.345360 -0.011905 -0.353350 -0.290419 0.129640 0.533188 -0.044046 0.166145 -0.333760 -0.475852 -0.530164 1.319604 -0.572982 -1.114177 -1.140255 0.501717 -0.515297 0.221715 0.093233 -0.894226 0.756134 0.287180 -0.307266 0.298309 -0.274240 0.184054 2.209556
these 0.581123 0.596673 -1.240914 -0.650729 -1.109242 1.113316 1.040285 -1.178326 0.245364 -0.899942 -1.599438 -0.116852 0.482031 -0.228755 -0.653867 -0.781195 0.489641 0.199846 0.288367 0.105661 -0.215558 -0.749740 -1.026612 0.544295 -0.026306 -0.205481 -0.633189 0.546329 -0.533753 -0.737156 -0.076348 0.373377 -1.358860 -1.087886 0.285760 -0.415971 -0.815882 -0.163737 0.380912 -1.240365 -0.336949 -0.407141 0.743378 0.530386 0.373036 -0.338083 -0.719995 0.038522 -0.493913 1.418858
only 0.479537 -0.256852 -0.759703 -0.518916 -0.886582 0.592631 1.789676 -1.336141 0.031571 0.049947 -0.948519 -0.264802 0.914566 0.378937 -0.283909 -0.629524 0.350364 -0.332101 0.111972 -0.568282 -0.460392 -0.720733 -0.456386 0.442934 -0.296612 -0.362666 -0.515887 -0.009626 -0.125377 -0.308827 0.369602 0.131347 -0.570280 -0.916036 1.041114 -0.067126 -1.017413 -1.474704 -0.064473 -0.982249 0.278185 -0.176032 0.165827 0.350180 0.586925 0.054674 -0.063646 -0.511133 -0.078622 1.952544
see 0.225938 -0.502124 0.127231 0.130991 -1.210765 0.533823 0.636920 -1.258427 -0.608423 -0.574412 -1.134973 -0.013275 1.381532 0.059595 -1.401584 -0.012738 0.778699 0.431067 -0.262687 0.000985 0.358618 -0.824137 -0.115384 1.105069 -0.253073 -0.748942 0.196127 -0.423601 0.568335 0.389256 -0.993343 0.429070 -0.536697 -0.502504 0.636754 0.411321 -1.007045 0.301805 -0.523963 -0.675086 -0.329522 -0.378412 0.329702 0.270473 -0.038155 0.391410 -0.445874 0.315393 0.725750 2.022590
may 0.952311 -0.093733 -1.221987 -0.090923 -1.336261 0.927017 1.427613 -1.121142 -0.033912 -0.228554 -1.542305 -0.488846 0.858265 0.166330 -0.615766 -0.945713 -0.010458 0.014933 -0.051667 -0.645146 0.425266 -0.522852 -0.798926 0.195139 0.059289 -0.460724 -0.224993 -0.121022 0.425406 -0.333812 0.445849 -0.348797 -1.041523 -1.111896 0.283686 -0.171208 -0.708524 -0.276806 -0.590353 -0.383836 0.466642 -0.842827 0.764176 0.836313 0.275613 -0.178560 -0.809290 0.107326 -0.045219 1.441232
than 0.837467 -0.011780 -0.177097 -1.177817 -0.743455 0.979833 1.110641 -1.111797 0.336872 -0.022238 -1.389463 -0.386564 0.367300 0.294576 0.188986 -0.707869 -0.021953 -0.440633 -0.411819 -0.561929 -0.220100 -1.313055 -0.295617 0.465390 0.565667 0.126279 -0.693647 0.252872 -0.839977 0.220427 0.404396 -0.072013 -0.312615 -1.439414 0.748538 -0.047383 -1.398319 -0.887862 -0.060952 -1.214745 0.175293 0.040868 -0.374234 0.550061 0.834243 -0.129806 -0.024695 0.070820 -0.003101 1.908296
world 0.810383 -0.280824 0.053454 -0.686140 -0.964506 0.152001 1.243172 -0.945673 0.240742 0.038922 -1.406219 -0.850331 0.358448 -0.766068 -0.903405 0.148281 0.343271 -0.032104 -0.950312 0.241990 -0.620407 -0.875745 0.295730 0.306242 -0.131401 -0.180368 -0.615533 -0.128628 0.216535 -0.342178 -0.501829 0.754206 -0.764865 -0.090115 1.179069 0.059600 -0.612679 -0.138177 -0.229336 -1.643606 -0.656923 -0.179839 -0.679340 -0.163177 -0.758223 0.032346 -0.501319 -0.614061 0.665858 2.647502
i -0.142798 -0.723114 -0.018770 -0.007690 -0.769231 1.335659 1.775097 -1.556147 0.088243 -0.418663 -0.286277 0.471434 1.108347 -0.761375 -0.110535 0.154937 0.555930 1.104496 -0.209509 0.021702 -0.464802 -1.738168 0.367272 0.361952 0.269040 -0.862224 -0.381987 0.338507 1.734271 -0.070148 -0.262511 -0.368464 -0.732173 -0.590831 0.524018 -0.954927 -1.377901 -1.152209 -0.883233 -0.620266 0.810064 1.082538 0.515672 -0.146617 0.340885 0.286595 0.892682 0.109342 0.536887 1.749481
b 1.690306 -0.304239 0.002068 -0.232648 -0.556790 -0.942908 0.944528 -0.468946 -1.029069 0.383490 -0.695735 0.237925 0.921803 0.818529 -1.382761 -0.169561 0.764115 1.455648 -0.716443 -0.075660 0.882253 -1.421490 0.211787 0.258408 -0.898227 -0.148469 -0.258792 0.671387 0.280141 0.258549 0.429013 -0.901913 -0.289821 -0.889513 0.446010 -1.164000 -1.247255 -1.115976 -1.431882 -0.166235 0.042844 0.707070 1.939977 -1.311155 0.521289 -0.301970 0.872600 0.166201 1.181303 1.666267
would 0.440575 0.240732 -0.794127 -0.228410 -0.709023 0.901167 1.918851 -0.880372 0.251495 -0.095595 -1.507874 -0.346401 1.206250 -0.541613 -0.338509 -0.764145 -0.288057 -0.354971 -0.204744 0.264336 0.010071 -0.525521 -0.301190 -0.013640 0.411588 -0.256225 -0.795578 0.507194 0.352447 -0.548029 -0.186972 -0.663223 -0.990920 -0.813932 0.907091 0.000174 -0.996060 -0.845245 -0.199136 -0.021589 0.219438 0.187524 -0.026257 0.719996 0.349922 -0.747015 -0.179098 -0.136729 -0.319970 1.617392
d 1.168980 -0.395599 -0.276722 0.220955 -0.466409 -1.142426 0.984582 -0.560511 -0.451765 0.960225 -1.092172 0.664370 0.772410 0.760888 -1.341777 -0.213423 0.370080 1.575460 -1.135445 0.240457 1.006498 -1.426719 0.732294 0.100881 -0.972577 0.126077 -0.278077 0.829008 0.725929 0.123514 0.482810 -0.413777 0.091795 -0.636166 0.044922 -0.981682 -1.858428 -0.490820 -1.063035 -0.036221 0.903159 0.340358 1.908607 -1.015998 0.233441 -0.236459 0.928010 -0.091150 1.571591 1.990184
no 0.710547 -1.009645 -0.304142 -0.408195 -0.778522 1.373584 2.168667 -1.654515 -0.296427 0.121937 -0.940503 0.296956 0.589012 1.233670 -0.339952 -0.934121 0.286499 -0.074347 0.264398 -0.257185 -0.470280 -0.240815 -0.732306 0.537512 0.482219 -0.403257 -1.094635 0.211772 -0.054466 0.116111 -0.254181 0.334892 -0.365989 0.102057 0.822317 -0.071888 -1.103982 -0.869192 -0.848719 -0.864113 0.433727 0.476073 0.510891 0.175201 0.406515 0.447954 0.251828 -1.008726 0.309095 1.516865
however 0.515242 -0.048369 -0.735058 -0.106428 -0.751521 0.529712 1.450799 -1.056804 0.187269 0.164645 -1.362162 -0.649494 1.299224 0.104676 0.037472 -0.564384 0.688883 -0.272136 -0.252184 -0.221547 -0.003947 -0.418575 -0.816092 0.238780 0.097100 -0.153671 -0.381310 0.322705 -0.209723 -0.234990 -0.080899 0.136839 -0.974729 -0.704617 0.923156 0.021241 -0.876901 -0.349316 0.052092 -0.622291 0.107182 -0.185421 0.243514 0.525561 0.216474 -0.115952 -0.073350 -0.301403 -0.422840 1.923660
between 1.269984 -0.295912 -0.795784 -0.124060 -0.073863 0.332347 0.835657 -0.934793 -0.135709 -0.630033 -1.063505 -0.492940 0.737610 -0.538369 -0.865867 -0.957874 1.220003 0.086172 -0.276777 0.152949 -0.063937 -0.075869 -1.670244 0.243972 0.224801 0.405641 -0.699275 -0.537214 0.206066 0.314355 -0.937171 -0.010250 -0.797432 -0.658504 -0.125151 0.178196 -1.219378 -0.576660 0.085531 -1.812926 -0.214510 0.683922 -0.030435 -0.608158 0.796661 0.163678 -0.666164 -0.030878 0.442458 1.813922
about 0.956600 -0.620414 0.098542 -0.356814 -0.612218 0.933531 1.293296 -0.840387 0.200866 -0.719315 -1.321096 -0.565686 1.010747 0.621427 0.156099 -1.031371 0.023048 0.521079 0.046543 -0.053883 -0.051212 -0.809650 0.663093 -0.076978 0.130885 -0.525103 -0.425041 -0.156307 0.541365 0.380993 -0.850153 0.617094 -0.824550 -0.955074 0.395190 -0.298545 -0.878554 -0.543919 0.495479 -1.901314 -0.562770 -0.179840 -0.901898 0.400051 0.050800 0.258560 -0.010358 0.081314 -0.118024 2.095934
over 0.995203 -0.166973 -0.237548 -0.221983 -0.031329 0.453233 1.094542 -1.842102 0.959682 -0.444326 -1.045526 -0.907954 0.530553 -0.298373 -0.658424 -0.876636 0.559245 -0.043164 -0.392780 0.063760 -0.567885 -0.653801 -0.670322 0.450695 0.266411 -0.082356 -0.447397 -0.261590 0.200218 0.107144 -0.319992 -0.526177 -0.357559 -0.203026 0.787428 0.326464 -0.982406 -0.844327 0.628578 -1.464998 -0.512086 -0.172986 0.143299 0.471978 0.384286 0.397620 0.764623 0.055514 -0.420852 1.679369
years 0.247023 -0.172850 0.135718 -0.338444 -0.401231 -0.276939 1.743189 -1.311385 0.064055 -0.664099 -1.487700 -1.055637 0.005633 0.545132 -0.083492 -0.600627 -0.391458 -0.318147 -0.408375 -0.272726 -0.179420 -0.964549 -1.319982 -0.167105 0.071105 0.126185 -0.159383 -0.145080 0.732682 -0.915934 -0.417880 -0.244181 -0.483557 -0.611650 0.622427 -0.652820 -0.630227 -0.749116 0.787625 -1.074907 0.230163 -0.682228 -0.535750 0.514982 0.195859 -0.101639 0.601093 0.049951 -0.750631 2.500445
states 0.554337 -0.184513 -0.013750 -0.366109 -0.956970 -0.384694 0.638002 -0.688006 -0.659599 0.435709 -0.982853 -1.218109 0.796197 -0.865649 -0.650753 -0.307641 1.291438 -0.584777 -0.837330 -0.401578 0.971211 -0.117649 -0.214686 0.891410 -0.293384 -0.722023 -1.416606 0.226296 0.026590 -0.597818 -0.971487 0.412039 -0.578561 -0.032652 0.930879 0.139450 -0.583538 -1.043669 -0.559861 -2.059331 -0.179566 -0.741221 0.956856 0.804185 0.009196 -0.625608 0.260530 -0.198950 -0.188382 2.170163
people 0.105732 -0.314306 -0.068881 -0.633534 -0.820254 0.410244 1.402527 -0.955892 0.152704 -0.177829 -1.700240 -0.723379 0.627035 -0.297293 -0.736405 -0.464668 0.059144 -0.125056 0.442461 -0.275133 1.116522 -1.260777 0.511995 -0.742036 0.573136 -1.322491 -0.232486 -0.100201 0.367447 -0.121608 -0.053415 -0.168483 -0.770152 -1.351383 0.707751 0.624647 -0.108203 0.044915 -0.631940 -1.509349 -0.059540 -0.522846 0.599047 0.028093 0.171219 -0.759950 -0.357880 0.341617 -0.366055 2.440407
war 0.101309 0.540443 0.798651 0.060585 0.079266 -0.172472 1.519743 -0.717053 0.074396 0.954778 -1.738951 -1.371314 0.391365 -1.509711 -0.651960 -0.464052 0.863010 1.283634 -0.999063 -0.151352 0.229094 -0.859397 -0.377233 0.374057 -0.190480 0.083857 -0.200233 -0.520406 0.557558 -1.096132 -0.897009 1.003063 -1.911036 0.106763 0.908389 0.285147 -0.675174 -0.210809 -0.892637 -1.406918 0.253277 0.364017 -0.239001 0.073303 0.186350 -0.729033 0.681513 0.289579 -0.356457 2.096320
during 0.392495 -0.025615 0.219035 -0.254613 -0.241930 -0.328843 1.590867 -1.277589 -0.046298 0.161660 -1.940920 -1.416388 0.227468 -0.640730 -0.400584 -0.655129 1.070957 0.409853 -0.394869 0.094308 0.002998 -0.709565 -1.041246 0.003565 -0.359902 0.426815 0.077289 -0.289481 0.597663 -0.981027 0.154760 0.022135 -1.020349 -0.119102 0.740462 -0.362263 -0.454725 0.185597 0.517489 -0.822785 0.517960 -0.449105 -0.649098 0.263783 0.419792 -0.055819 0.345343 -0.442067 -0.251267 1.762486
united 0.795288 -0.674211 -0.154296 -0.354523 -0.889291 -0.548122 0.499380 -0.995569 -0.118924 0.336859 -0.973073 -1.390284 0.419325 -0.910488 -0.560984 -0.058435 1.146184 -0.365865 -0.695305 -0.346969 1.194174 -0.035248 -0.313722 0.779099 -0.204617 -0.495890 -1.091566 0.034893 0.116303 -0.940512 -0.762473 0.016143 -0.493472 0.167455 0.740147 0.171278 -0.412822 -0.919804 -0.806544 -1.787173 -0.167893 -0.917553 0.828554 0.525431 -0.157164 -0.530428 0.523543 -0.536987 0.174082 2.351950
known -0.116604 -0.159739 -0.078417 -0.257679 -0.995623 -0.210000 1.243449 -1.085026 -0.242604 0.056022 -1.469393 -0.149234 0.866334 0.135774 -0.613337 0.264759 0.832116 0.228705 -0.107188 -0.019771 0.371565 -1.240650 -0.675727 0.549544 -0.604560 -0.424786 -0.143497 0.016367 -0.144873 0.320166 0.644504 0.388765 -0.615233 -0.800088 0.849787 -0.451098 -0.928583 -0.620460 0.113672 -0.822869 0.246344 -0.552238 0.276002 -0.001996 -0.167157 -0.123445 -0.964376 -0.768477 -0.086775 1.788667
if 1.048714 -0.334782 -1.179388 -0.185959 -0.898004 1.170967 1.783984 -1.173543 -0.343218 -0.162539 -0.677305 -0.236857 1.257774 0.305853 -0.218895 -0.964753 0.388074 -0.025508 -0.214012 -0.080440 -0.917213 -0.517751 -0.184273 0.271542 -0.099328 -1.013436 -0.493595 0.003760 0.753711 0.605508 0.750823 -0.590154 -0.718825 -1.203222 1.031088 -0.349127 -0.665097 -1.574589 -0.971326 -0.615708 0.040793 0.428852 0.587902 0.924152 0.511554 -0.104435 0.018055 0.016075 0.116153 1.020149
called -0.059813 -0.323134 -0.305505 0.019793 -1.433032 -0.008294 1.313907 -1.026634 -0.463757 -0.081416 -1.056502 0.039255 0.826565 -0.294692 -0.989855 -0.060899 1.235735 0.402992 0.106025 0.068382 -0.099431 -0.734445 -0.718533 0.603789 -0.484739 -0.566273 -0.117508 -0.259645 0.072717 0.494731 0.440452 0.000073 -0.260151 -0.645384 0.406078 -0.631019 -1.040460 -0.767766 -0.030869 -0.568135 0.188727 -0.322443 0.539078 0.409596 0.330397 -0.097614 -0.776882 -0.474385 0.224085 1.292919
use 0.592044 0.049597 -0.748541 -0.640323 -1.402195 0.819909 0.891346 -1.556757 0.040497 0.262346 -1.225066 -0.007319 0.588889 0.344994 -0.481521 -0.588301 0.636353 0.186118 0.244745 -0.022211 0.418047 -0.631026 -0.363961 1.348448 0.425256 -0.424227 -0.478970 -0.038850 -0.982292 -0.260631 0.238288 -0.255001 -1.304836 -0.683871 0.543110 0.121618 -1.491700 -0.019124 -0.287860 0.191012 -0.140665 -0.371909 0.239832 0.745487 0.523048 0.222215 -0.538567 0.115470 -0.076881 1.595380
th 0.013332 -0.049755 -0.010706 -0.129449 -0.490476 -0.911844 1.256259 -0.791497 -0.779526 -0.041471 -2.203435 -0.231305 0.573863 0.055852 -0.785911 -0.012036 0.403616 0.685750 -1.009872 -0.852848 0.146473 -1.402164 -0.690911 -0.190958 -0.228145 0.860696 -0.456979 -0.176788 0.409957 -1.410946 -0.195285 -0.108685 -0.202513 -0.802888 1.017790 -0.535410 -1.130679 -0.382821 0.764999 -0.900819 -0.960377 -0.188029 -0.355938 -0.617647 -0.344632 0.645666 0.100554 -0.862329 0.748625 1.748327
system 0.089174 -0.051720 -0.707844 -0.794502 -0.863885 1.121059 0.776008 -0.783085 0.606323 1.404696 -1.257597 0.181764 0.387503 0.962516 -1.712333 -0.180573 1.538091 -0.244391 -0.287279 -0.194040 -0.699911 0.064011 -1.092987 0.977732 0.081279 -0.837876 -0.085108 0.068801 -0.447433 -0.182922 -0.825204 -0.098210 -0.155828 -0.510408 0.238493 -0.030308 -1.088876 -0.687196 0.356228 0.250980 -0.140262 -0.738390 -0.018074 1.097465 0.822844 0.038834 -0.721853 -0.389517 0.220869 1.946426
often 0.336516 0.296421 -0.804302 -0.153757 -1.157483 0.557335 0.734373 -1.536976 0.223797 -0.094668 -1.428827 -0.200767 0.567811 -0.177490 0.242745 -0.463389 0.633080 0.315358 0.494314 0.093433 -0.026187 -0.857103 -0.563071 0.013466 0.078055 -0.498707 -0.357816 0.004486 -0.708014 0.546712 0.984234 0.152209 -1.244257 -1.278958 0.878723 -0.140921 -1.016384 -0.101787 0.196934 -0.544357 0.221214 -0.618375 0.300845 0.623076 0.258126 -0.184577 -0.766304 0.197960 -0.288660 1.386984
state 0.016554 -0.210924 0.311138 0.133867 -0.875993 0.423552 0.787663 -0.987311 -0.272998 1.104312 -1.660070 -0.902664 1.185137 -0.162588 -1.061156 0.313840 1.179625 -0.717412 -0.080612 -0.209713 0.172756 0.070634 -0.649112 0.339645 -0.425382 -0.793830 -1.315423 0.116113 0.002114 -0.223513 -1.231095 -0.026419 0.514225 -0.464761 1.019380 0.217229 -0.273176 -0.843892 -0.482880 -1.647948 0.508141 -0.917598 1.208452 0.834881 0.410494 -0.320107 0.062073 0.232381 0.222571 1.475732
so 0.368687 -0.425876 -0.577444 -0.209292 -0.837124 1.254686 1.622843 -0.965589 0.320673 -0.156826 -1.014940 -0.183583 1.025496 -0.165114 -0.014163 -0.653343 0.338415 0.094704 -0.035816 0.261725 -0.512444 -0.589578 -0.229980 -0.187347 -0.058414 -0.418962 -0.629906 0.168533 0.153352 0.053006 0.552299 -0.366192 -0.798692 -1.358924 0.957357 -0.426058 -1.318628 -0.948434 -0.068613 -0.481071 0.324909 0.199240 -0.177709 0.550021 0.517709 -0.120020 -0.273354 -0.083337 -0.233612 1.427715
history 0.188257 -0.692563 0.350734 0.311337 -1.050448 -0.347305 0.345980 -1.325069 0.145346 -0.667846 -1.497714 -0.224850 1.074382 0.316410 -1.263919 0.141711 0.332688 0.639337 -0.765738 0.068062 0.287976 -0.916967 -0.002227 0.721807 -0.156387 -0.657575 -0.173970 -0.445156 0.100464 -0.496072 -1.083670 0.770114 -0.635230 -0.130379 1.053713 0.330225 -0.669781 0.728462 0.192436 -1.490194 -0.224178 0.009562 -0.220424 -0.128718 -0.345207 0.404465 -0.446164 -0.146569 0.297298 2.339613
will 0.984006 0.002130 -1.176466 -0.371415 -1.236858 1.384957 1.763210 -0.711074 0.328238 -0.332612 -1.104476 -0.324961 0.957108 -0.728077 -0.599169 -0.886060 -0.448695 -0.482962 0.101100 0.118829 -0.402318 -0.497367 -0.228095 0.173563 -0.047431 -0.378187 -0.362135 -0.053459 0.492893 -0.247132 -0.059885 -1.005631 -0.605450 -1.229537 0.753958 0.127739 -0.872844 -1.070010 -0.709564 0.062856 0.329673 -0.054887 0.145103 0.877970 0.505018 -0.074648 -0.601982 0.072266 0.205182 1.263698
up 0.696976 -0.554700 -0.005007 0.218159 -0.358806 0.778564 1.578124 -1.142385 0.363364 -0.664465 -1.813532 -0.014057 -0.068372 -0.808421 -0.445522 -1.510179 0.319774 -0.001634 0.202891 0.767527 -0.232450 -0.464347 -0.356233 -0.044762 -0.038918 -0.519984 -0.740483 -0.882463 0.145604 0.085441 -0.071575 -0.704315 -0.153653 -0.740486 0.777738 -0.256316 -1.658614 -0.820757 0.534788 -0.777638 -0.231894 -0.488264 -0.323700 0.514330 1.008347 -0.663474 0.408171 -0.031699 0.150322 1.085674
while 0.451705 -0.089886 -0.224378 -0.207271 -0.605296 0.334407 1.200713 -1.279297 0.320004 0.032795 -1.547141 -0.304036 0.508699 -0.257238 -0.032784 -0.549500 0.914347 -0.311217 0.041627 -0.128810 -0.089596 -0.678937 -0.252519 0.065346 -0.156672 -0.420384 -0.557642 -0.357241 -0.224935 0.114815 0.430541 -0.149569 -0.593104 -0.709949 0.310976 -0.123631 -0.743833 -0.451259 0.093217 -0.777641 -0.051843 -0.157300 -0.051465 0.377948 0.469631 -0.565206 0.021240 0.197519 -0.096745 1.736917
where 0.640768 -0.838559 -0.534799 -0.271100 -0.529896 0.273620 1.328340 -1.260962 0.051838 -0.613546 -1.458728 -0.192981 0.661620 -0.477166 -0.357711 -0.088647 1.588201 -0.004123 -0.696308 0.398968 0.016925 -0.209147 -0.196154 0.224085 -0.127000 -0.982324 -0.659546 0.024963 0.471635 0.073535 0.688179 -0.562218 -0.364520 -1.069270 0.367036 -0.402983 -0.543455 -0.930273 -0.023373 -1.029848 0.475608 -0.158581 0.088028 0.383544 0.533890 0.155782 0.038106 0.037840 0.581265 1.506133
city 0.073850 -0.954645 0.283353 -0.354019 0.451432 0.221046 0.959417 -1.772383 0.575943 0.275992 -2.376353 -0.174992 -0.014073 -0.373467 -0.833203 1.357626 0.728594 0.205994 -0.362554 -0.066467 0.504359 0.277888 -0.680633 0.105774 -0.633312 -0.678895 -0.562960 0.374828 0.537247 -0.160966 -0.485451 -0.575009 0.272471 -1.473768 1.202001 0.664754 -0.226553 -1.431947 -0.026929 -1.524011 -0.067411 -1.318777 -0.510686 -0.505559 -0.273971 0.249888 -0.528999 -0.468955 -0.061963 1.357211
being 0.190571 0.093688 -0.577092 -0.072584 -0.740405 0.617769 1.737644 -1.092951 0.697562 0.342241 -1.018132 -0.376505 0.883511 0.249210 -0.031668 -0.017307 0.420632 -0.002217 0.079188 -0.488281 -0.403232 -0.729735 -0.643871 -0.139729 -0.531431 -0.542452 -0.525477 -0.248569 -0.387389 0.137969 1.355722 -0.261692 -0.985132 -0.553410 1.273798 -0.312780 -0.796610 -0.806094 0.029879 -1.070153 -0.153739 -0.443615 0.134699 0.253451 0.187897 -0.427809 -0.408915 -0.303911 -0.319024 1.451233
english 1.604195 -0.903472 0.120810 0.968487 -1.172202 -0.432680 -0.136886 -0.777765 -0.235665 1.077225 -0.862505 0.434827 0.795512 0.424791 -1.174900 -0.484615 0.249361 0.835629 0.215333 -1.025140 1.422370 -1.814821 0.325402 -0.354112 -0.028666 -0.730724 -1.204161 -0.010122 -0.190846 -1.391330 0.951893 0.561847 -0.485623 -0.955983 0.569542 0.517702 -1.231360 -0.372667 0.164330 -0.418911 0.028007 0.211293 0.223768 -1.428018 0.556600 0.748397 0.277737 -0.262307 0.435424 2.254650
then 0.558618 0.015553 -0.841941 0.086365 -0.516173 0.346474 1.649247 -0.924571 0.181337 -0.468606 -0.960965 -0.197378 1.019668 -0.402610 -0.642890 -0.380462 1.094568 0.002862 -0.551614 0.293906 -0.272843 -0.621226 -0.182228 -0.186157 -0.466763 -0.622465 -0.628244 -0.492068 0.665810 -0.128903 0.474010 -1.073594 -0.162836 -0.648612 1.135794 -1.068707 -1.045759 -1.342805 -0.228350 -0.690042 0.100292 0.288816 0.281293 0.470611 0.786762 -0.371347 0.254986 -0.194691 0.160159 0.826794
any 0.854192 0.019870 -0.922724 -0.392713 -0.964533 1.234634 1.655251 -1.257761 -0.480936 0.029276 -1.221951 -0.242280 0.807226 0.515239 -0.672085 -0.991876 0.308336 -0.177175 0.113456 -0.289725 -0.565298 -0.338922 -0.260670 0.595823 0.547656 -0.472671 -0.702406 0.149092 0.201300 0.423547 0.471314 -0.023284 -0.560953 -0.407566 1.064283 0.243468 -0.618540 -0.999856 -0.648164 -1.033345 0.067758 0.403741 0.642767 1.267608 0.484235 -0.232302 -0.445618 -0.269316 -0.123049 1.362380
both 0.726941 0.088903 -0.570858 -0.122165 -0.800583 0.201025 0.979143 -1.334238 0.331244 -0.145570 -0.971888 -0.197769 0.647618 -0.395854 -0.354535 -0.204507 0.730084 -0.276027 0.301419 -0.297906 0.037906 -0.860936 -0.708852 -0.051786 -0.216439 -0.157673 -0.521165 0.034481 -0.552044 -0.147290 0.183189 0.064485 -0.785922 -0.682849 0.437189 -0.145423 -0.889103 -0.386908 0.044510 -1.037362 -0.025849 0.077743 0.335641 0.158939 0.387384 -0.368563 -0.217911 0.233148 0.030365 1.819681
under 0.039154 -0.455168 -0.021132 0.431484 -0.045591 0.317783 1.429940 -1.745595 0.431878 0.806724 -0.965128 -0.318522 0.671561 -0.267158 -0.972081 0.037308 0.544021 -0.100005 -0.002821 -0.758594 0.029866 -0.217119 -0.915775 1.018466 -0.296792 -0.268371 -0.538184 -0.618546 0.644477 -1.006341 -0.353637 0.039688 -0.344015 -0.087488 0.479713 -0.510640 -1.135972 -0.191561 -0.010874 -0.673306 -0.054652 -0.275077 0.619024 0.869028 0.240099 -0.478585 0.459678 0.520828 -0.746232 1.668815
out 0.769089 -0.266866 -0.219750 0.275377 -0.326815 0.724268 2.086099 -0.965121 0.396141 -0.110965 -1.652865 -0.015949 0.373700 -0.636274 -0.487243 -1.387321 0.389304 -0.223262 -0.028433 0.624478 -0.611957 -0.604324 0.019886 -0.408312 0.047896 -0.844251 -0.913826 -0.741860 0.425359 0.028151 0.355644 -0.698222 -0.857826 -0.092076 0.838886 -0.376431 -1.173367 -0.744541 0.374526 -0.954788 -0.444296 -0.278404 -0.119600 0.443411 0.631592 -0.855861 0.336276 -0.383448 0.179991 0.840423
made 0.495120 0.076146 -0.126870 -0.063557 -0.691849 0.706460 1.359796 -0.913697 0.571167 -0.200739 -1.732765 -0.298304 0.472608 0.111833 0.164089 -0.571997 0.296244 0.392567 0.112756 0.209361 0.202263 -0.504907 -0.493753 0.417720 -0.397006 -0.078140 -0.851915 -0.154695 -0.508670 -0.282517 0.095751 0.417668 -1.004965 -0.143831 0.918648 -0.383900 -1.764937 -0.708628 0.072206 -0.381249 0.050870 -0.464482 0.179974 0.401363 0.445577 -0.627662 0.061003 -0.976005 -0.132041 1.308265
well 0.286804 -0.065825 -0.557023 -0.526552 -0.727278 0.550257 0.942628 -1.442350 0.467792 0.059346 -1.284264 -0.237592 0.246174 0.005124 0.042901 0.049541 0.505365 0.103695 0.119013 0.259662 -0.005969 -0.815079 -0.400685 0.313754 -0.348153 -0.662791 -0.510846 0.297444 -0.578870 -0.292056 0.460985 0.379569 -0.706274 -1.007226 0.726339 -0.316618 -1.187106 -0.327613 -0.125319 -1.004131 0.148923 -0.128938 -0.051270 0.125447 0.166241 -0.319037 -0.482870 -0.206989 0.049565 1.920601
her 0.576003 -0.485239 0.137576 0.838226 -0.477473 0.460637 1.715673 -1.477685 0.643998 -0.600793 -1.110565 0.631685 0.299435 0.234706 0.744149 0.074039 0.182502 -0.369901 0.709471 0.699529 0.169072 -0.748089 -0.186622 -1.317454 -0.553137 0.637975 -0.699759 -0.754264 0.662022 0.191088 0.379131 -0.138693 -1.159338 0.027602 0.379905 -0.106079 -0.401846 -0.719882 0.006731 -0.785761 1.046464 -0.130402 -0.567510 1.023064 0.752644 -1.402084 0.492112 -0.658606 -0.260042 2.539171
e 1.151503 -0.430143 -0.619094 0.492208 -0.989907 0.502703 0.704050 -0.966909 -0.139059 0.373628 -0.517612 0.862652 0.005157 0.051406 -0.691346 -0.324181 1.279895 0.871780 -0.568646 0.145380 0.143164 -1.698983 -0.397977 1.092389 0.299198 -0.340727 -0.231791 0.301399 0.697372 0.617641 -0.034134 -0.385390 -0.134483 -1.080429 0.168287 -1.496748 -0.469801 -0.811917 -0.574329 -0.604956 -0.281258 0.256707 1.071407 0.036374 0.383376 0.265559 -0.211014 0.172654 0.563914 1.485704
number 1.108644 0.039681 -0.770685 -0.995376 -0.415841 0.261931 0.854327 -1.053555 -0.877482 -1.022711 -0.721293 -0.031828 0.241036 0.449755 -0.945105 -0.777764 0.662520 0.076023 0.063575 0.262942 -0.294630 -0.706567 -0.339250 0.625307 -0.043218 -0.186756 0.171806 0.734473 -0.403074 -0.138515 -0.052761 -0.260828 -0.490683 -1.169434 1.521930 -0.281310 -0.753408 -1.443595 0.317961 -1.539544 -0.627881 -0.348624 0.462700 0.610394 0.508758 0.160710 -0.049270 0.325233 -0.427383 1.513528
government 0.303876 0.367925 -0.626593 0.775250 -0.593741 0.457359 1.195284 -1.397772 0.871235 1.908349 -1.243510 -1.714531 0.546588 0.143947 -0.886633 0.187430 0.596493 -0.021233 0.541394 0.023505 0.314521 0.799215 -0.502649 -0.157187 -0.368630 -0.055212 -0.479982 0.105449 0.248040 -1.112690 -1.283318 -0.117056 0.073238 -0.525982 1.229324 0.210911 -0.971174 -0.125890 -0.600408 -1.261536 -0.549904 -0.867276 1.267647 1.073801 0.588998 -0.582239 0.852687 0.183118 -0.386008 1.885032
them 0.342759 0.236033 -0.827974 -0.260265 -0.708997 1.350368 1.674840 -1.181391 0.583807 -0.668626 -1.510333 0.118205 0.867972 -0.514976 -0.157248 -0.959947 0.366470 -0.295336 0.448083 0.276309 0.012201 -0.810070 0.249624 -0.013687 0.305675 -0.449376 -0.956867 -0.516339 0.071968 -0.638692 0.551805 -0.117973 -0.999577 -0.581025 0.586767 -0.162024 -1.025789 -0.727691 -0.406602 -0.810487 -0.237151 0.072085 0.154049 0.195996 0.726060 -0.973074 -0.182022 0.060353 -0.420243 1.091818
m 0.481070 -0.917795 0.426133 0.333081 -0.271958 0.505802 1.431728 -1.136971 0.250302 0.536586 -0.125710 0.974016 0.069663 -0.126923 -0.574545 -0.244252 0.037480 1.265764 -0.999914 -0.512486 0.283439 -1.553353 -0.375696 1.101290 -0.992401 -0.628936 0.055799 0.775532 -0.155412 0.715651 -0.090725 -1.129272 0.034767 -1.257951 -0.366841 -1.300645 -0.788409 -1.165789 -0.269215 -0.921989 -0.692445 0.476127 -0.075870 0.448072 0.157077 0.573058 0.874497 0.939091 0.904238 1.659233
later -0.189082 0.228499 -0.300839 0.251193 -0.481720 -0.416226 1.593512 -1.104214 0.371881 -0.263360 -1.381650 -0.143115 0.799818 0.022183 -0.283056 -0.236429 0.512455 0.209171 -0.643994 0.154967 0.303418 -0.905314 -0.518652 -0.150426 0.083033 -0.185618 -0.411139 0.003985 0.524678 -0.674279 -0.057490 -0.189314 -0.823995 0.035253 0.762885 -0.805123 -1.197080 -0.538320 1.032024 -0.465806 0.360831 -0.502671 -0.155056 0.034432 0.205672 -0.738689 0.398579 -0.448987 -0.660259 1.802978
since 0.420851 -0.091292 -0.499779 -0.177439 -0.856169 0.280153 1.433006 -1.181019 0.227219 0.059665 -0.791242 -0.839295 0.812177 -0.020308 -0.358405 -0.171505 0.408596 -0.201859 -0.683472 -0.437960 -0.223027 -0.303341 -0.945867 0.357812 -0.125517 -0.154401 -0.101841 0.213300 0.063712 -0.455933 -0.113822 -0.166380 -0.600237 -0.635826 1.436917 -0.461258 -0.752982 -0.269525 0.101527 -0.723326 0.062850 -0.270435 -0.011798 0.561310 -0.104442 0.244284 0.278945 -0.417294 0.021382 1.864283
him 0.179085 -0.086628 -0.603743 0.600423 0.148540 0.919041 2.169837 -1.664413 0.746773 -0.575235 -1.601304 0.132518 1.269174 -0.336258 0.629159 -0.313241 0.443402 0.020829 0.373092 0.743766 0.403508 -0.873856 0.521774 -1.041856 -0.181968 0.285854 -1.003708 -0.563879 0.530681 -0.255887 0.673254 -0.162522 -0.923793 0.260429 0.820801 -0.251508 -0.730815 -1.254545 -0.273708 -0.304136 0.528350 -0.373721 -0.213278 0.354030 0.139393 -1.205444 0.629731 0.151389 -0.527293 1.449580
part -0.177745 -0.082806 -0.262427 -0.378133 -0.418322 0.167684 0.901444 -1.297839 0.137211 0.352441 -1.206782 -0.157198 1.027546 -0.243574 -0.670941 0.192542 1.146206 -0.149367 -0.016409 -0.621895 0.077207 -0.398961 -0.079632 0.618504 -0.492841 0.096033 -0.120671 -0.141035 0.106747 -0.082534 -0.057741 0.254747 -0.249629 -0.690068 0.616571 -0.100493 -1.237204 -0.492444 -0.079515 -1.690724 0.344505 0.029034 -0.152147 0.085325 0.229459 -0.110954 -0.463043 -0.961997 0.000056 1.638635
name -0.283420 -0.780650 0.099753 0.852214 -1.201160 -0.212105 1.356919 -1.737185 -0.270543 -0.136828 -0.301934 1.197905 1.150838 -0.035550 -0.819369 0.316242 0.886404 -0.302081 -0.193122 -0.519215 1.326867 -0.596918 0.097014 0.161803 -0.070556 -0.421242 -0.592024 -0.487022 0.247201 0.423906 0.002725 0.175630 -0.687718 -0.713612 1.549981 -0.213870 -0.674176 -0.602217 0.011330 0.042578 0.201507 -0.648126 -0.094654 0.116199 0.186751 0.356286 -0.664441 -0.937628 -0.397130 1.979789
c 1.084098 -1.120006 -1.053980 0.441138 -0.566602 -0.337533 0.824103 -0.580108 -0.337657 -0.054718 -0.628134 0.897244 0.484645 0.858614 -0.285506 -0.518766 1.019534 0.687615 -1.531895 0.061921 0.746241 -1.635157 -0.968370 1.174958 -0.353235 -0.375821 -0.514144 0.781594 -0.010454 -0.045371 -0.579696 -0.726440 0.251920 -1.133471 0.667619 -1.464495 -0.217091 -0.798363 -0.041509 -0.347632 -0.550058 0.438486 0.876859 0.023375 0.749312 0.677354 0.142708 -0.453631 1.143564 1.236940
century -0.460289 0.217763 0.233826 -0.043186 -0.673308 -0.749669 0.941005 -0.689370 -0.704947 -0.057064 -2.279115 -0.259483 1.176503 0.501252 -0.478582 0.304135 0.473430 0.679970 -0.540216 -0.051446 0.196158 -1.383874 -0.819024 -0.089521 0.206764 0.807255 -0.720187 0.143739 0.358820 -1.288348 0.249227 -0.109314 -0.489703 -0.749681 0.975180 -0.228337 -1.239291 0.174798 1.210900 -1.130337 -1.076031 0.031539 -0.147794 -0.839403 -0.325483 0.771927 -0.104994 -1.063559 -0.047327 1.772549
through 0.762408 0.406577 -0.662217 0.044509 -0.718807 1.047250 1.495216 -0.934608 0.545775 0.244041 -1.557514 -0.512217 0.550577 -0.283541 -1.035955 -0.657099 0.811205 -0.649914 0.185449 0.504530 -0.039952 -0.565917 -0.783222 0.219414 -0.325590 -0.283690 -0.838923 -0.762375 0.335472 -0.296343 0.080145 -0.575859 0.048264 0.317421 -0.089094 0.042633 -1.105944 -0.188290 0.504656 -1.251658 0.123713 0.137821 -0.507414 0.208950 0.822484 0.098369 -0.494759 -0.519079 0.298230 1.302204
because 0.409246 -0.101780 -0.454521 -0.505380 -0.727506 1.087287 1.490156 -1.017804 0.135557 -0.040223 -1.218527 -0.505249 1.321879 -0.140116 0.113431 -0.282504 0.452341 -0.290899 -0.139511 -0.043412 -0.237400 -0.377815 -0.414989 0.388388 0.086974 -0.343936 -0.313549 0.405856 -0.321455 0.153061 0.462700 -0.154894 -0.836057 -1.055380 0.783530 -0.097120 -0.856286 -0.322045 -0.175721 -0.441582 0.297920 -0.052247 0.080737 0.662242 0.302711 0.020817 -0.315504 -0.313852 -0.259787 1.537222
x 1.196451 -0.243009 -1.315876 0.131272 -1.133405 0.185840 0.786792 -1.166834 0.360052 -0.542689 0.423295 0.783497 0.642081 0.263832 -0.665104 0.172869 1.628206 0.659771 -1.366695 -0.488699 -0.781699 -1.533943 -0.385350 0.634747 0.041100 -1.446995 0.929692 0.762745 -0.384015 1.129264 -0.932994 -1.416031 0.040523 -1.119336 0.585580 -1.801580 -0.036938 -1.689929 -0.843671 -0.173937 -0.336720 1.187704 0.464504 1.212474 0.942667 -0.340646 0.031331 0.302153 0.318855 0.760030
university -0.217481 -1.395379 -0.603421 0.528391 0.061299 -0.767027 0.077914 -0.657124 0.343305 -0.178277 -2.155951 -0.099284 1.154400 0.392630 -0.470872 0.958143 1.119602 -0.302320 -1.223953 0.591872 1.181564 -0.491746 0.597477 0.465015 -0.265954 -1.973545 -1.091221 0.142923 -0.007745 -1.020338 -0.592907 -0.900745 1.178509 -0.299112 -0.726967 -0.346191 0.120890 -0.543674 0.580219 -1.684564 1.155559 -1.068279 -0.255822 0.349731 -0.506172 0.250075 -0.193607 0.510010 1.800088 2.179388
early 0.284035 -0.159987 0.031176 -0.402333 -0.931760 -0.263888 1.153816 -0.946445 0.047645 -0.349814 -2.078281 -0.217980 0.558286 0.283970 -0.494035 -0.214175 0.580596 0.447333 -0.130010 0.028860 0.334337 -1.142556 -0.900409 0.152669 0.316272 0.183036 -0.016726 0.139762 -0.034641 -0.695136 -0.253558 0.209478 -0.703239 -0.145163 0.764617 -0.924242 -0.644366 0.521700 1.218177 -0.442144 -0.041493 -0.081684 -0.787814 -0.253352 0.242430 -0.354960 -0.399779 -0.905456 -0.094527 2.161398
life 0.626359 -0.088955 0.591709 -0.327437 -0.731864 0.900548 1.483014 -0.629108 0.307549 -0.907851 -1.824623 -0.016468 0.809245 0.787244 -0.135211 0.279951 0.100097 -0.274012 0.405147 -0.252369 0.163087 -0.824282 -0.073994 -0.373161 -0.023865 0.004562 -0.293963 -0.398333 0.488152 -0.006719 -0.527792 0.083634 -0.203076 -0.425381 0.019783 -1.123021 -0.330925 -0.283751 0.042528 -1.159389 0.412191 0.259146 -0.702788 0.949731 -0.098661 -0.348806 -0.249583 0.076619 -0.222328 2.536608
british 0.923981 0.118901 0.433621 -0.021875 -0.074371 -0.727999 0.219687 -1.232762 0.261048 0.677354 -1.147790 -1.368516 0.918951 -0.558925 -1.856093 -0.343420 -0.157092 0.814380 0.134669 -0.369761 1.467906 -0.771329 0.147980 0.451460 -0.341354 -0.365786 -1.171110 -0.136557 -0.303684 -0.892146 0.620036 0.159283 -0.300419 0.404247 0.858309 0.193752 -0.900712 -0.254437 0.067963 -0.284220 -0.423158 0.143482 0.599433 -0.423745 0.345077 -0.545934 0.315230 -0.433578 0.064869 2.623469
year 0.429587 -0.272350 -0.196755 -0.140301 -0.662355 -0.668416 1.377372 -1.728303 -0.654499 -0.611720 -1.117038 -1.022589 0.007035 0.377148 -0.381773 -1.100684 -0.089806 -0.352530 -0.681001 -0.251075 0.132258 -0.592632 -0.937161 -0.065968 -0.332395 0.501984 0.004740 -0.360246 0.817679 -1.000023 -0.291836 -0.102773 -0.182005 -0.767548 0.999751 -0.584219 -0.580115 -1.334318 0.600640 -0.338809 0.237678 -1.035339 -0.756339 0.704245 -0.196356 0.101913 0.669070 -0.437836 0.301154 2.210916
like 0.430421 -0.266020 0.295405 -0.293617 -1.522082 0.563919 0.885329 -0.907288 0.221518 -0.353035 -1.203110 0.342592 0.534687 -0.604297 -0.286351 -0.208090 0.626694 0.356269 0.248621 0.322577 -0.149071 -1.217923 0.200337 0.224138 0.247068 -0.853541 -0.552589 0.402436 -0.200041 0.799440 -0.044666 0.477941 -0.908197 -1.179501 -0.032717 -0.304093 -1.034209 -0.399081 0.173438 -0.213143 0.297689 0.132492 0.440701 0.319798 0.617698 -0.389879 -0.514642 -0.460532 -0.147697 1.405072
same 0.738997 -0.127770 -0.652141 -0.254088 -0.748742 0.559591 1.069686 -1.144768 -0.487563 -0.298538 -0.781293 0.175045 0.787486 -0.055188 -0.624445 -0.555955 0.856503 0.103270 0.039988 -0.543678 -0.409647 -0.542353 -0.655087 0.102122 0.110469 0.012616 -0.480338 -0.035662 0.367893 0.388745 0.082410 -0.223097 -1.099314 -1.037092 0.887495 -0.226424 -1.162772 -0.989725 0.365931 -0.690067 0.203602 -0.100184 0.011313 1.022254 0.542393 0.168503 -0.414808 -0.270651 -0.016966 1.709347
including 0.781440 0.119691 -0.102088 -0.448558 -0.701127 0.116697 0.480546 -1.481905 0.508964 -0.405108 -1.459021 -0.003192 -0.325081 -0.263486 -0.673267 -0.027108 0.702530 -0.014557 0.477540 0.000890 0.151646 -1.364963 -0.100899 0.727246 0.003880 -0.433759 -0.188029 0.173677 -0.474227 -0.441898 -0.447252 0.514626 -0.598153 -0.279430 0.063731 -0.184266 -0.499285 0.122645 0.043384 -1.311247 -0.145823 -0.616412 0.584551 0.164797 0.105032 -0.518733 -0.395806 -0.241313 -0.178827 1.737301
became -0.241457 -0.580332 0.432302 -0.177907 -0.016107 -0.471202 0.760411 -1.006099 0.630774 0.595353 -1.061304 -0.498785 0.777572 0.111935 -0.275589 0.426639 0.943657 -0.295643 -0.181457 -0.212445 0.069979 -0.257512 -0.175454 -0.202028 0.048777 0.286015 -0.404372 -0.270025 -0.121133 -0.265222 0.310664 0.328978 0.058678 -0.455701 1.566907 -0.739258 -1.325148 -0.611481 -0.069462 -0.687497 0.530338 0.139792 -0.216940 -0.684792 0.105333 -0.817850 0.277377 -0.662276 -0.163129 2.306076
example 0.797966 -0.125740 -0.723256 0.067433 -1.280282 0.517967 0.709769 -0.770297 -0.355868 -0.142132 -1.088129 0.333309 0.788813 0.399256 -0.351360 -0.673781 0.972858 0.197513 -0.016628 -0.233854 0.091009 -0.869564 -0.226134 0.630876 0.219724 -0.681567 -0.281325 -0.036385 0.050159 0.545752 -0.034008 0.301884 -0.595755 -1.140979 0.757064 -0.494363 -0.911471 -0.625911 -0.357774 -0.462489 -0.242006 0.201413 0.508805 0.731529 0.323862 0.102238 -0.557717 -0.110955 -0.045627 1.351558
day 0.074429 -0.126100 0.344997 -0.796822 -2.151993 0.158444 1.023241 -1.440543 -0.499149 -0.440922 -1.250403 -1.038214 0.662217 -0.814046 -0.332022 -0.700916 0.678441 0.707510 -0.132704 -0.790548 0.772446 -0.236815 -0.144016 -0.472147 -0.605925 0.453021 0.145350 -0.422051 1.146918 -0.638661 -0.505063 -0.130382 -0.581249 -0.855494 0.234282 -0.069684 0.126988 -0.871161 -0.104980 -0.489169 -0.083587 -0.568777 -0.964745 0.346558 -0.362315 0.511575 0.806482 -0.818140 0.980126 2.325766
each 0.699447 -0.046837 -1.292803 -0.633165 -0.833734 0.081201 0.864238 -1.147417 -0.576424 -0.708586 -0.696058 -0.042120 0.142705 -0.342905 -1.240084 -1.027984 0.864885 -0.196204 0.331766 -0.174910 -0.887461 -0.494831 -0.514504 0.010095 -0.417433 0.249063 -0.234310 -0.816244 0.384659 0.199549 0.111918 -0.262488 -0.349291 -1.105341 0.896250 0.168944 -1.119995 -1.973102 0.342461 -1.086788 0.010184 -0.721919 0.367252 0.889643 0.685046 -0.039096 -0.581110 0.048023 0.257439 1.046471
even 0.305730 0.061245 -0.438171 -0.464591 -0.826741 0.891973 1.318271 -1.165103 0.156438 -0.128821 -1.499839 -0.149945 0.767556 0.087409 0.273012 -0.542247 0.323606 -0.140613 -0.138317 -0.086731 -0.361476 -0.664428 -0.306302 0.092704 0.392934 -0.397359 -0.365217 0.456136 -0.362849 -0.024500 0.535386 -0.037879 -0.712968 -0.922654 0.696909 -0.006563 -0.995603 -0.500608 0.048511 -0.751661 0.383790 0.217053 0.214438 0.437585 0.347564 -0.388564 -0.063692 -0.254355 -0.355292 1.553083
work 0.339773 0.146264 -0.407900 0.125115 -0.701842 0.754715 0.941725 -0.535912 0.088579 -0.259546 -1.742637 0.369015 0.665253 0.501076 0.189078 -0.119480 0.302628 0.284846 0.385075 0.627290 -0.310518 -0.641634 0.198088 0.192427 -0.317567 -0.071246 -0.499772 0.230743 0.254773 -0.760881 0.348635 0.000994 -0.613559 -0.245563 0.713495 -1.337845 -1.329057 -0.037431 0.574263 -1.126238 0.047766 0.185104 -0.567981 1.136672 -0.563550 -0.552643 -0.377719 -0.155388 0.000538 2.129432
language -0.120314 -0.475662 -0.819696 0.635081 -1.325248 0.148524 0.512134 -0.041446 -0.112514 1.284533 -0.332319 1.387239 0.313828 1.375356 -1.191689 -0.451122 1.155690 0.470813 -0.087785 -0.534840 0.711546 -0.761148 0.005576 -0.357403 0.631937 -1.439226 -0.247692 -0.089316 -0.639382 -0.930147 0.150039 0.193519 -0.881267 -1.011566 1.023555 0.525883 -1.064282 0.531295 0.306832 -1.395636 -0.292443 0.643385 -0.153346 0.067358 1.208231 0.976661 -0.665671 -0.922453 0.489274 2.688039
although 0.262226 -0.165353 -0.335896 -0.199857 -0.783561 0.227893 1.300937 -1.206389 0.382942 0.091720 -1.068430 -0.368412 0.949108 0.052194 0.112297 -0.335572 0.488213 -0.023394 -0.056554 -0.274846 -0.032664 -0.259773 -0.762087 0.430667 -0.001759 -0.143350 -0.257011 0.295775 -0.437619 -0.118276 0.215277 0.310801 -0.904615 -0.835237 0.771658 -0.082020 -0.820621 -0.260493 0.338254 -0.769163 0.019209 -0.247289 0.231347 0.180539 0.063023 0.115879 -0.049840 -0.302511 -0.407927 1.947159
several 0.579993 0.312889 -0.588004 -0.335461 -0.676070 -0.156113 0.677475 -1.074976 0.483636 -0.857106 -1.529142 -0.063679 -0.250948 -0.121100 -0.444002 -0.725152 0.559227 0.188583 0.137769 0.332942 0.043753 -0.973488 -0.641534 0.767589 -0.052280 -0.450396 -0.021829 0.173206 -0.323141 -0.778634 -0.211751 0.587690 -0.644780 -0.625834 0.370468 -0.063111 -0.737833 -0.623886 0.875790 -1.533059 -0.048902 -0.793375 0.335312 0.199261 0.168580 -0.214449 -0.311955 -0.181977 -0.846064 1.759631
form 0.449085 -0.085306 -0.747500 0.362287 -1.948374 0.205909 1.395511 -1.037111 -0.490720 -0.043584 -0.875377 0.069746 0.536931 0.132533 -0.848707 0.055194 0.889174 -0.037631 -0.093238 -0.075935 -0.152594 -0.623377 -0.889285 0.158531 -0.041062 -0.219625 -0.313920 -0.330236 -0.475801 0.118345 0.357860 0.399921 0.447697 -0.796341 0.716423 -0.521852 -1.503582 -0.350959 -0.234134 -1.085666 0.326108 0.462279 0.630414 0.773907 0.771889 0.680545 -0.870290 -0.060384 -0.122067 1.084937
john 0.633469 -0.600939 0.345765 0.560999 -0.411655 -0.447627 -0.093589 -0.626351 0.527970 -0.947969 -1.381450 0.087868 2.202587 -0.047313 -0.158079 -0.020026 1.097611 0.964549 0.572020 -0.478871 1.440604 -1.971184 0.100721 -0.183968 -0.359755 -0.031296 -0.940057 0.231545 -0.227995 -0.704823 -0.676943 -0.230761 -0.228766 0.609896 0.476434 -1.613384 -0.559666 -1.367553 -0.041564 0.147239 0.033676 -0.280641 0.565128 -0.445814 -0.879412 -0.372255 0.754070 -0.585808 0.777958 1.748388
u 1.356425 -0.447932 -0.177491 0.277000 -0.828899 -0.493109 0.792732 -0.920777 -0.335966 1.038670 -0.338912 -0.663459 -0.408436 -0.869656 -0.289315 -0.379588 1.087342 0.254660 -0.838942 -0.147837 0.455079 -0.663668 -0.168560 1.126624 -0.800839 -0.756722 -1.175856 0.497273 0.341370 -0.180892 -1.253049 0.139437 -0.541829 -0.504545 0.669719 -0.683648 -0.002263 -1.495852 -0.748362 -1.081019 -0.442227 -0.086838 0.532125 0.732472 0.265543 -0.031499 0.852247 0.046134 0.025126 1.575003
national 0.062546 -1.214813 -0.526822 -0.039732 -0.920423 -0.027528 1.171845 -1.315526 0.132049 1.163855 -1.141701 -0.965866 -0.637822 -0.319752 -1.468579 0.304950 -0.050758 0.516675 -0.329610 0.219529 0.892992 -0.192017 -0.584556 -0.045768 -0.479819 0.134707 -0.405910 0.119226 -0.322860 -0.465127 -1.040421 0.601440 0.568623 0.188524 0.777373 0.634782 0.024481 -0.168963 -0.982105 -1.279868 -0.010645 -1.336859 0.649933 1.110991 -0.746213 -0.072239 -0.876992 -0.096768 1.499159 2.096550
very 0.455318 -0.523644 0.038931 -0.639341 -0.721833 0.904785 0.986274 -0.781567 0.689683 -0.035537 -1.331002 -0.327525 0.633120 0.377750 0.368843 -1.060375 0.474984 0.294990 0.019450 0.206883 -0.373555 -0.588855 -0.740419 0.015459 -0.026620 -0.318301 -0.238851 0.203750 -1.220801 0.339479 0.844386 0.543183 -0.657719 -1.682745 0.984822 -0.427205 -1.334303 -0.306421 -0.022640 -0.619835 0.597257 0.215623 -0.348669 0.444812 0.561683 -0.036675 -0.234059 -0.477286 -0.145663 1.750506
much 0.379769 -0.008157 -0.002896 -0.586904 -0.336697 1.223151 1.011829 -1.202872 0.888570 -0.087591 -1.515322 -0.383967 0.921231 0.015600 0.354870 -0.376610 0.500586 0.003683 -0.266233 0.141823 -0.049768 -0.789620 0.056996 0.268888 0.502409 0.171261 -0.586939 0.405984 -0.798046 -0.076835 0.361404 -0.219530 -0.331955 -1.258907 0.919613 -0.062269 -1.648247 -0.188077 0.310850 -1.290873 0.555475 0.121209 -0.501428 0.573652 0.328374 0.451943 0.140948 -0.373444 -0.365019 1.688710
g 1.112864 -0.735294 -0.429068 0.639876 -0.867066 0.101131 0.567690 -0.760987 -0.190342 -0.077324 -0.342126 0.989107 0.033395 -0.017845 -0.168096 0.094559 1.635206 0.852148 -0.637965 0.374421 0.083877 -1.468461 -0.592160 1.035475 0.161848 -0.044499 -0.144077 0.242381 0.342210 0.382789 0.138480 -0.334541 0.030281 -1.317329 0.019387 -2.050415 -0.210947 -0.819488 -0.635095 -0.464005 -0.744839 0.598888 1.393807 0.634736 0.464178 0.223608 0.074471 -0.244390 0.896136 1.500750
french 0.606190 -0.245533 -0.104142 0.476879 -0.761738 -0.925445 0.921407 -0.891458 0.078288 1.580908 -1.273139 0.417819 -0.010004 0.430376 -1.367179 -0.277177 -0.332866 1.589089 -0.217773 -0.655970 0.990377 -0.417318 0.778603 -0.315110 -1.180310 0.531067 -0.529607 -0.518178 0.624001 -1.045135 1.022029 0.684604 -0.142180 -1.068757 -0.130856 0.380333 -1.623340 0.754180 0.159288 -0.634587 -0.832536 0.406315 1.511372 -0.346686 0.033328 0.201866 0.830677 -0.606355 -0.002911 2.415371
before 0.383694 -0.013584 -0.338578 0.101789 -0.816550 0.514879 1.861217 -1.062307 -0.083850 -0.182430 -1.481212 -0.383007 0.473851 -0.373393 -0.356611 -1.155560 0.738773 -0.178343 -0.666660 -0.282483 -0.006204 -0.480516 -0.472524 0.010878 0.160765 -0.265117 -0.349866 -0.563419 1.137080 -0.760158 0.476303 -0.086887 -0.525547 0.011109 0.741203 -0.519317 -0.549532 -0.658614 0.635840 -0.352018 0.667762 -0.519174 -0.526212 0.141439 0.605318 -0.415069 0.425514 -0.487320 -0.017861 1.364075
general 0.113243 -0.263226 -0.162013 -0.174594 -0.106023 0.080810 0.216286 -0.847606 0.041385 0.552375 -1.358860 -0.236466 1.164528 0.444794 -1.160317 -0.899259 1.211680 0.407250 0.217906 -0.704640 0.701093 -0.212580 -0.346416 0.423118 -0.410931 -0.356643 -0.626054 -0.002675 -0.166762 -0.574088 -0.444976 0.548501 -0.257949 -0.739623 0.891048 -1.026586 -0.471847 -0.606567 -0.443624 0.346721 -0.210784 -0.136617 0.813257 1.000216 -0.341854 -0.287937 0.541292 0.535825 0.357764 2.124108
what -0.064328 -0.120496 -0.582300 -0.019272 -0.802573 1.342963 1.057909 -0.775768 0.054527 -0.335570 -1.090752 -0.067261 1.994051 -0.424130 -0.118245 -0.644533 0.483315 0.300677 0.210712 0.026348 -0.211468 -0.514354 0.417752 -0.380191 0.615786 -0.877713 -0.754370 0.074904 0.916661 0.298354 -0.082438 0.163692 -1.072028 -0.979684 0.920615 -0.309426 -1.256439 -0.352290 -0.318373 -1.042439 0.220831 0.474773 -0.133418 0.589950 -0.387225 -0.115735 -0.381414 -0.329419 0.116025 1.633970
t 0.282124 -1.022805 -0.656841 0.292788 -0.794140 0.926670 1.613167 -0.957745 0.077596 0.170298 0.016910 0.282785 0.650639 -1.155697 0.097407 -0.533991 0.167795 0.729800 -0.243324 0.156572 -0.425911 -1.376274 0.160681 0.366697 0.189405 -1.499019 -0.415763 1.271407 1.062121 0.277976 -0.480318 -0.875102 -0.553456 -1.512481 0.546559 -1.363904 -1.147850 -0.417015 -0.540923 0.012480 0.520419 0.791292 0.660916 0.420564 -0.091368 0.529071 0.426318 -0.058651 1.008545 1.323082
against 1.197248 0.024354 -0.699502 0.124248 0.269658 -0.065173 2.015876 -1.043134 0.522130 0.713976 -2.128186 -0.822212 0.641258 -1.011772 0.323246 -0.671043 1.541779 0.097543 -0.283132 -0.738910 -0.616445 -1.001129 -0.231372 -0.027053 0.440897 -0.246109 -0.213338 -0.396294 -0.309669 -0.479936 -0.454539 0.207741 -1.468062 0.844946 0.256794 0.721915 -0.537978 -0.398060 -0.941010 -0.933603 -0.399299 0.282216 1.030974 0.024212 -0.089448 -0.761424 0.846503 0.124381 -0.251042 0.820785
n 0.508704 -0.140930 -0.684712 0.025198 -0.452490 -0.528031 0.999943 -1.718162 -0.789332 -0.783878 -0.175740 0.643239 0.184441 0.476734 -0.803849 0.092075 1.068568 0.847098 -1.180195 -0.100697 0.371890 -0.797485 0.011688 0.360817 -0.089517 -0.909959 0.360392 0.600924 0.842011 0.828540 -0.251958 -0.816506 1.001957 -2.059966 0.684605 -1.651305 -0.584316 -1.455068 -0.907119 -0.433591 -0.079258 1.314012 1.047292 0.861926 0.725558 0.493059 0.420763 0.168050 0.263917 0.664843
high 1.580978 -0.668120 -0.503340 -0.375191 0.614378 0.884978 1.132422 -0.791088 0.310433 0.373784 -1.902189 -0.429358 0.085499 0.099907 0.461359 -0.127628 0.996376 -0.567112 0.078564 0.004632 0.032373 -0.901105 -0.768333 1.072355 -0.673016 0.151903 -0.349020 0.533509 -0.816283 0.385217 0.402159 -0.104078 0.209721 -1.130720 0.404650 0.430639 -0.608135 -0.321189 0.633369 -0.387144 0.529237 -1.235594 0.330937 0.547379 1.306828 0.184575 -0.137753 0.462994 1.326241 1.641095
links 1.082658 -1.607709 -0.155318 0.515171 -1.300457 0.349125 0.134931 -0.665284 0.549859 -0.761906 -0.899225 0.406247 0.552140 0.431015 -1.742625 -0.345976 0.385026 0.895624 -0.068274 0.434228 0.905790 -0.536996 0.652053 1.244743 -0.460692 -0.732113 0.380183 -0.479247 0.298505 0.001694 -1.649213 0.709199 -0.113139 0.094494 0.413821 0.223186 -0.411515 0.563525 -0.361693 -0.699655 -0.677505 -0.679651 -0.273550 0.073634 0.078369 -0.246776 -0.563320 0.308126 1.209262 2.171570
could 0.161507 0.153272 -1.061792 -0.417322 -0.378016 1.114290 2.150766 -0.604736 0.696144 -0.036533 -1.309698 -0.241082 0.992958 -0.236774 -0.459604 -0.812518 -0.433830 0.166971 -0.163548 0.017315 -0.331246 -0.742546 0.097425 0.152877 0.436995 -0.485780 -0.827371 0.071116 0.180382 -0.555639 0.365676 -0.645931 -1.055442 -0.825909 0.798470 0.049103 -1.336294 -0.671953 -0.270820 -0.064787 -0.079230 -0.073795 0.541017 0.996787 0.640956 -0.293888 -0.314357 -0.099588 -0.392487 1.392551
based 0.645753 -0.114292 -0.499271 0.018280 -1.088880 0.089299 0.604165 -0.594367 0.307113 0.082329 -1.430699 0.667442 0.270423 0.561106 -0.709454 -0.293960 0.767906 0.301688 -0.162145 -0.200798 0.156907 -0.028321 -0.678589 0.999191 0.146266 -0.896132 -0.241521 -0.169381 -0.802034 0.381653 -0.283645 0.019280 -0.627946 -0.091736 0.648393 -0.126145 -1.249378 -0.273954 0.486255 -0.257644 -0.566502 -0.509172 0.220517 0.738014 -0.093186 -0.320490 -0.853624 -0.534152 0.428075 1.905039
those 0.346050 0.264549 -1.061311 -0.645550 -0.725709 1.101563 1.100344 -1.171786 0.327959 -0.517016 -1.229865 -0.116578 0.486891 -0.358196 0.047846 -0.479165 0.562480 -0.380542 0.388127 -0.615253 -0.184381 -0.932871 -0.259561 -0.023127 0.594390 -0.403502 -0.596642 0.175735 -0.206627 -0.605014 0.302975 0.243041 -0.949310 -0.956223 0.172129 -0.173529 -0.360102 -0.174395 -0.074582 -1.354132 -0.507494 -0.296791 0.733364 0.275303 0.383605 -0.690906 -0.470922 0.363450 -0.410623 1.751297
now -0.576193 -0.392636 -0.291612 -0.327959 -0.801167 0.206057 0.951985 -1.078870 0.640876 -0.058290 -0.890119 -0.506982 1.163715 -0.433711 -0.072318 0.176013 0.514954 -0.050042 -0.203993 -0.313828 0.057347 0.004346 -0.105642 0.641469 -0.325933 -1.184613 -0.614575 -0.064345 -0.148468 -0.291568 0.149586 -0.336982 -0.263081 -1.144645 1.188341 -0.416362 -0.893207 -0.638490 0.006605 -0.963082 -0.016880 -0.359658 -0.191002 -0.022642 -0.164082 0.012730 -0.098488 -0.724120 0.173982 1.756650
second 0.294423 0.066874 -0.063217 0.139354 -0.472401 -0.448046 1.095223 -0.573093 -0.763002 0.382376 -1.039594 0.023623 0.648804 -0.366313 -0.997779 -0.743576 0.732181 -0.321539 -0.153569 -0.476176 -0.692488 -1.456997 -0.495096 0.564636 -0.770316 0.746426 0.113701 -0.883303 0.787997 -0.751098 0.020355 0.094359 -0.399372 -0.604495 1.206339 -0.371917 -0.501911 -1.648290 0.021357 -0.757809 -0.313580 -0.093591 -0.896508 0.487522 -0.056996 0.354353 0.160553 -0.551414 0.736520 1.890391
de -0.144466 -0.873264 -0.416733 0.516542 -0.102103 -0.452423 1.856486 -1.184615 0.792025 0.540484 -1.762546 0.911321 -0.421053 0.572725 0.063079 0.969293 0.397583 1.771889 -0.429463 -0.549410 0.836858 -0.534323 0.477307 0.241905 -1.100415 -0.030646 -0.084322 0.309366 1.722070 0.111180 -0.423153 1.259529 0.771950 -0.686779 -1.132099 -0.814941 -0.393527 -0.036658 0.034824 0.078782 -0.384763 0.625858 1.864854 0.864678 -0.841762 0.542013 0.263399 -1.269819 0.524613 1.913273
music 0.485536 -1.299853 -0.505443 -0.549371 -1.112914 -0.356314 0.034296 -1.633122 -0.727398 -0.923481 -1.280912 0.507203 0.182476 -0.234224 0.133123 0.487912 0.477818 0.370445 1.089537 0.630005 0.942650 -0.867934 -0.163311 -0.033096 -0.302069 -1.128545 0.026456 0.671310 -0.022310 0.075959 0.407222 -0.019450 0.477041 0.214664 1.544243 -0.049079 -2.518529 1.187424 1.177217 -0.763945 0.369401 0.631997 -0.526159 0.626667 -0.265358 -0.659180 -0.646392 -0.454480 0.632859 1.619888
another 0.539112 -0.127558 -0.045978 0.194552 -0.674112 0.272021 1.251071 -0.683915 -0.236395 -0.110610 -1.372916 0.344391 0.857909 0.284707 -0.586169 -0.736475 0.592773 0.093385 0.063594 0.206371 -0.113993 -0.742729 -0.376891 0.281736 0.142625 -0.128758 -0.082384 -0.581682 0.159664 0.539393 0.391810 -0.072420 -0.351950 -0.455450 1.162565 -0.135711 -1.065725 -1.091587 -0.432793 -0.574209 0.183786 0.036245 -0.060635 0.708407 0.090137 -0.061726 -0.428094 -0.732852 -0.197167 1.498774
large 0.580224 -0.154507 0.582025 -0.849846 -0.356452 0.652926 1.057229 -0.694072 0.496177 -0.170385 -1.687476 -0.620073 -0.137674 0.012128 -0.808657 -0.474621 0.255762 0.452723 0.263634 1.136966 -0.262343 -0.586360 -0.037498 0.940528 -0.358262 0.155494 -0.273221 0.440134 -1.218644 -0.066130 0.600279 -0.242685 0.153658 -1.482417 0.884944 -0.000154 -0.931689 -0.794387 0.121515 -1.734484 -0.500436 -0.756800 0.485469 0.681629 0.873088 0.259183 -0.416173 -0.535750 -0.404218 1.222561
she 0.100825 -0.957297 -0.127568 0.514207 -0.161369 0.039829 1.823231 -0.863029 0.438900 -0.484084 -0.652111 -0.284252 0.748320 -0.024417 0.860907 0.121948 0.215413 -0.007070 0.272600 0.574332 0.352750 -0.311249 0.127187 -1.512444 -0.027600 -0.201879 -1.015914 -0.304504 0.729825 0.383704 0.646574 -0.533927 -1.131545 -0.053289 0.533553 -0.422751 -1.087517 -1.086829 0.110354 -0.794494 1.371101 -0.473114 -0.338045 0.578223 0.221872 -0.846688 0.381082 -0.747835 -0.133287 2.215801
f 1.716042 -1.071462 -0.904540 0.413383 -0.419676 -0.308794 0.886792 -0.533249 -0.321916 -0.075537 -0.251236 0.674783 -0.131734 -0.463578 -0.283336 -0.185252 1.347658 1.116015 -1.823835 0.014487 0.075712 -1.160990 -0.832095 0.795493 -0.875089 -0.483734 -0.190226 0.967784 -0.161174 0.350591 -0.181928 -0.682923 -0.081382 -1.265600 1.355582 -1.547337 0.051683 -1.127768 -0.743003 -0.140319 -0.752965 0.864306 1.030511 0.513216 0.097394 0.276244 0.540061 0.299486 0.964220 0.920083
external 1.196826 -0.994916 0.070567 0.276781 -1.081092 0.496195 0.239975 -0.712756 0.395204 -0.478439 -1.038065 0.138991 0.393507 0.503343 -1.627353 -0.185793 0.334876 0.871069 -0.151161 0.078991 0.659952 -0.551731 0.306710 1.312595 -0.438416 -0.548194 0.262556 -0.467267 0.211844 0.007852 -1.426763 0.283319 -0.183711 0.095935 0.380953 0.070862 -0.520538 0.489546 -0.405185 -0.432075 -0.590983 -0.698092 -0.075555 0.278896 0.133055 0.018947 -0.406380 0.300636 1.273614 2.018736
german 0.661579 -0.533334 0.560337 0.524702 0.286810 -0.064526 1.203024 0.299789 -0.669077 1.542152 -1.228881 0.778857 0.367644 -0.405890 -1.157039 -0.392970 0.761989 0.988846 -0.451077 -0.359868 0.301863 -0.716878 0.734776 0.343233 -0.647988 0.225351 -0.179393 0.634731 0.059212 -0.968044 0.654157 1.056719 -0.905119 -0.937369 1.334728 -0.387596 -1.230709 0.619706 0.129226 -0.769713 -0.785231 -0.321195 0.947488 -1.644038 0.356150 -0.744721 0.792749 0.973758 0.800724 2.264294
different 0.642937 0.281576 -1.346457 -0.621701 -1.166749 0.684738 0.172639 -0.618830 0.088519 -1.026450 -0.800325 0.520932 0.287042 -0.128988 -0.634120 -1.034515 0.878670 -0.164526 -0.162249 -0.376071 -0.200800 -0.565363 -0.924748 0.101320 0.532727 -0.330951 -0.612861 0.062550 -0.773120 -0.026284 0.010530 0.039269 -1.347220 -1.297972 0.429903 0.029852 -1.179300 -0.061011 0.853665 -1.096306 0.013248 -0.268914 0.481083 0.756911 0.592070 0.018560 -1.223197 0.360147 -0.348587 1.465210
modern -0.462333 -0.145408 0.245325 -0.448413 -1.508463 -0.141615 0.342718 -0.863114 -0.298492 -0.020630 -1.651942 0.225190 0.914689 -0.072991 -0.619593 0.151553 0.389111 0.837483 -0.550259 -0.049447 0.204155 -0.686023 -0.622729 0.741219 0.506358 -0.566026 -0.521603 0.141619 -0.966693 -0.276167 0.128533 0.226992 -1.059535 -0.823407 0.416475 0.304181 -1.271204 0.569320 0.904153 -0.730637 -0.402969 0.165683 -0.307677 0.084275 -0.059382 0.426160 -0.610054 -0.026997 0.088340 2.143925
great 0.173186 0.218607 1.134480 -0.055368 0.270027 1.212454 1.025117 -1.456459 0.617102 -0.456736 -1.937586 0.051504 1.286317 -0.137363 -1.045483 0.173794 0.351788 0.359221 -0.409135 0.688129 0.415042 -1.262350 -0.076626 -0.166048 0.168972 1.205770 -0.367605 0.494777 0.002222 -0.170873 0.345555 0.226540 -0.388221 -0.050888 0.277635 0.577778 -0.746258 -0.698447 0.005771 -1.256930 0.238103 -0.300421 0.232209 -0.069055 0.088024 0.194461 0.109924 -0.909465 0.366637 1.651585
do 0.192452 -0.111523 -1.247372 -0.427530 -1.372927 1.529797 1.738411 -0.963995 -0.126867 -0.450749 -1.227829 0.318073 0.715504 -0.940097 0.229605 -0.715588 -0.118207 -0.062995 0.556581 -0.178925 -0.216331 -0.446253 0.389771 -0.003507 0.888133 -1.328362 -0.881431 0.764126 0.608239 -0.191735 -0.421707 0.063517 -0.767312 -1.508470 -0.245661 0.219507 -0.853947 -0.280579 -0.487108 -0.144319 0.249644 0.375492 0.944154 0.566444 0.060490 0.022769 -0.398280 -0.081050 0.224861 1.676018
common 0.940501 -0.300081 -0.072470 -0.249354 -1.508562 0.597414 0.321224 -1.036681 -0.427100 0.106327 -1.221572 0.436278 0.477817 0.493732 -0.285266 -0.750635 1.293113 -0.015291 0.151974 -0.937090 0.122320 -0.852501 -0.928353 0.841623 0.814571 -0.220589 -0.489454 -0.230050 -1.000933 0.244223 0.424939 0.595775 -1.006205 -0.977793 0.500059 0.113460 -0.625975 -0.230591 -0.273121 -0.587234 -0.270633 -0.390436 0.511308 0.354957 0.628991 0.510321 -0.841891 -0.683318 -0.083421 1.460192
set 0.553985 0.208875 -0.753601 0.097035 -0.714023 0.404766 0.484857 -0.918005 -0.571623 -0.948211 -0.803784 0.441555 0.140694 0.010936 -0.856702 -0.450051 0.550123 0.429245 -0.576470 0.008924 -0.552065 -0.598549 -0.454734 0.511302 -0.238639 -1.082285 -0.587428 0.137915 0.065933 -0.021608 0.188445 -0.063338 -0.552877 -0.422725 1.384135 -0.663191 -1.079424 -1.624922 0.260634 -0.747768 -0.623628 0.639133 0.248052 1.352177 0.827926 -1.278612 -0.203417 -0.165934 0.237565 1.152760
list 0.231480 -0.093440 0.083478 -0.241727 -1.310594 -0.443962 -0.077465 -1.158543 -0.731031 -0.999166 -0.734026 -0.027513 -0.188823 0.177702 -1.759703 -0.059209 -0.147951 0.291231 0.077129 0.665522 0.357695 -0.862242 0.529470 1.511691 -0.552972 -1.452503 0.484488 -0.038690 0.285330 -0.427142 -0.914273 0.965623 -0.600586 -0.646720 1.125077 0.919109 -0.392201 0.059049 -0.339901 -1.043481 -0.630416 -0.701899 0.696474 0.137349 0.509176 -0.645979 -0.365183 0.570485 -0.001906 2.115301
south 0.189808 -0.148536 -0.025032 0.149133 0.267014 -0.874599 0.448020 -1.532408 0.737937 0.447023 -1.491624 -1.028293 0.358353 -0.927666 -1.049607 -0.538906 1.017922 -0.583807 -1.209274 -0.410716 1.340233 -0.534854 -0.379244 0.200759 -0.852235 -1.454200 -0.693553 -0.442833 -0.354825 0.049036 -0.170238 -0.168920 0.551283 -1.304970 -0.433807 0.614100 -0.157300 -0.533313 -0.075182 -2.115955 -0.597429 0.222795 -0.182778 -0.456049 0.416903 -0.049247 0.037882 -1.221217 0.729142 1.221366
series 1.076376 1.485413 -0.264466 0.283500 -0.525079 -0.294682 1.335160 -0.336243 0.494730 -1.169037 -0.610303 0.459262 -0.595748 -0.547257 -0.890733 -0.249589 0.674875 0.720255 -0.528827 -0.072812 -0.843586 -1.462634 -0.792199 -0.170678 -0.310823 -0.950974 0.721372 0.517513 -0.339859 0.213426 -0.509023 0.536196 -0.645147 1.187416 1.247481 -0.349702 -1.329656 -1.694176 0.438593 -0.815965 0.473616 -0.399836 -0.308654 0.035913 -0.693278 -0.407478 -0.383078 -0.800022 0.622456 1.804769
major 0.839683 0.442633 -0.245370 -0.067884 -0.043592 -0.386479 0.501713 -1.504318 0.008596 0.280379 -1.933303 0.359120 -0.377612 -0.357686 -0.865917 -0.398346 0.675724 -0.413262 0.326770 1.057570 -0.402224 -0.617521 -1.111690 1.296926 -0.586918 0.419028 0.143252 0.427406 -0.162922 -0.586060 -0.663042 0.563936 -0.151294 -0.725765 0.962684 -0.095961 -0.820314 -0.423145 -0.469091 -1.306057 0.152723 -0.618286 0.163583 -0.552353 -1.120048 0.341179 -0.398708 -0.652854 0.150080 1.811410
game 0.997711 0.183012 -0.161655 -0.222681 -0.469475 -0.622924 0.666180 -0.827893 0.463925 -0.892026 -1.565812 0.698992 0.232591 -0.219550 -1.100170 -0.712402 0.331149 -0.553826 -0.759707 -0.321479 -1.908243 -1.078525 0.150605 0.116283 0.183996 -1.210228 0.706155 -0.225803 -0.608109 0.339044 -0.093122 0.075703 -0.887565 0.200383 1.674470 0.522248 -1.479358 -0.901267 0.170261 0.241825 0.609692 -0.858220 -0.058342 0.260005 -0.972834 -0.282317 -0.251621 -1.167748 0.945746 1.281038
power 0.803898 0.614979 0.145925 -0.649124 -0.052044 1.267659 1.642513 -0.834961 0.648373 0.261586 -1.355819 -0.810738 0.510843 -0.444811 -0.616756 0.552193 1.109601 -0.311320 -0.009606 -0.429889 -0.453060 -0.405155 -0.821557 0.310099 0.467346 0.875106 -0.568110 -0.164830 -0.347123 -0.002961 -0.665053 -0.580412 0.343586 0.300984 1.074733 0.125463 -1.557974 -0.363642 -0.029935 0.013529 -0.523532 -0.364505 1.008608 1.168320 0.938883 0.462968 0.485306 0.181511 0.185620 1.706958
long 0.271316 -0.176577 0.404822 0.267439 -0.635267 0.230229 1.196965 -1.871738 0.441819 0.088104 -1.278826 -0.540322 -0.154782 -0.097631 -0.206907 -1.267261 -0.049840 0.638963 -0.197694 0.349362 -0.147962 -0.815936 -0.976540 0.320952 -0.161747 0.131516 -0.422834 -0.069795 -0.207833 0.253274 0.034728 0.242074 -0.412810 -1.057462 -0.241594 0.055732 -0.741184 -0.847514 0.424533 -0.664627 0.422562 0.021397 -0.425155 0.716526 0.494527 0.408925 0.318434 -0.515419 -0.261884 1.677964
country -0.009059 -0.723002 -0.175852 -0.325246 -0.631204 0.021365 1.048984 -1.894453 0.183686 0.507694 -0.322891 -0.651959 0.055058 -0.697250 -0.728927 -0.293137 0.273855 -0.737064 0.384321 0.260867 0.666372 -0.000307 -0.375972 0.110183 -1.037270 -0.380947 -0.346091 -0.029792 0.299140 0.114699 -0.470901 -0.235636 0.249287 -1.029291 1.178043 0.636855 -1.215890 0.374732 -0.142811 -2.131816 -0.499763 -0.064715 -0.153643 0.239111 0.178804 -0.329532 0.135401 -0.487202 0.045073 1.983307
king -0.046899 -0.352263 0.568543 1.027025 -0.072107 0.014209 1.360300 -1.541277 0.993280 -0.633095 -0.739676 0.534380 1.494276 -0.051922 -0.143174 1.317701 0.435173 0.278288 -0.330226 -0.486850 0.810282 -1.790152 -0.348370 -0.098996 -0.693356 0.200068 0.184961 -0.486076 1.046827 -0.990355 -0.172331 -0.018619 -0.751256 0.643723 0.858187 0.695465 -0.773735 -1.077373 -0.755290 -0.292010 0.754771 0.220484 0.837596 -0.517662 0.660001 -0.690059 0.702057 0.039801 -0.347069 1.647507
law 0.427022 -0.569469 0.200998 0.690965 -0.969582 0.987315 0.387340 -1.128613 -0.908359 1.141314 -0.801828 0.193906 1.319582 0.632681 -0.731645 -0.091676 0.590752 -0.944455 0.137347 -0.957346 0.496935 0.160414 -1.122776 1.185036 0.246012 -0.684711 -1.552853 -0.154316 1.043583 -0.551592 0.014733 -0.285921 -0.855830 0.464943 -0.177112 -0.288196 -0.843117 -0.652966 -0.093097 -1.529707 -0.238201 -0.917443 0.875879 1.070172 -0.588527 -0.307234 0.280185 0.883666 -0.069293 2.088281
group 0.654120 -1.365942 -0.874170 -0.334933 -0.675922 -0.725157 1.213482 -0.570123 -0.352248 -0.174609 -0.461171 -0.319530 0.049734 -0.519648 -0.844979 -0.228007 1.320231 0.029276 0.615983 0.324811 0.085339 -0.468184 -0.484183 0.238533 0.390532 -0.590721 0.375379 -0.282987 -0.360595 0.238800 0.027140 -0.359510 0.536872 -0.165615 1.007044 -1.159401 -0.540553 -0.235838 -0.450999 -1.329259 -1.085038 0.592561 0.680221 0.625392 0.321920 -0.733124 -0.890649 -0.247911 -0.296159 1.781050
film 0.982933 0.982582 0.291369 0.332107 -0.801771 -0.201104 0.481133 0.241283 0.207766 -0.262857 -1.022240 -0.106184 -0.011777 -0.678843 0.030573 -0.333242 -0.596048 0.960199 0.518166 0.295436 1.085365 -1.529866 0.177315 -0.134810 -1.605788 -0.725683 0.716056 0.084489 0.110212 0.677860 0.515653 0.264182 -0.295768 0.472621 1.991392 0.113680 -1.773910 -0.143409 0.401386 -0.817474 0.612619 -0.640695 -0.085915 1.017661 -0.661639 -1.107936 -0.230679 -0.585931 1.291752 2.472722
still 0.148801 -0.523152 -0.444705 -0.433617 -0.945378 0.635022 1.179415 -1.144598 0.690969 -0.024545 -1.122964 -0.467299 0.837125 0.007748 0.220996 -0.151379 0.180365 -0.035070 0.102311 -0.272466 -0.341444 -0.078199 -0.447406 0.315177 0.062693 -0.444410 -0.420638 0.162848 -0.403615 -0.277497 0.499923 0.056528 -0.735261 -1.101342 1.065703 0.222056 -0.939339 -0.619298 0.414842 -0.755457 0.031597 -0.116564 0.091489 0.127474 0.239798 0.212244 -0.094650 -0.506068 -0.436200 1.996562
until -0.060919 -0.245731 -0.042611 0.007460 -0.435178 0.136390 1.786800 -1.234083 0.224330 -0.072862 -1.373469 -0.987325 0.550478 -0.123605 -0.656320 -0.470760 0.333030 -0.136267 -0.567883 -0.678090 -0.372798 0.269889 -1.038536 -0.035762 -0.149380 -0.259826 -0.304749 -0.324433 0.718834 -1.206354 0.106919 -0.403906 -0.260593 -0.352097 0.894472 -0.669081 -1.001373 -0.330933 0.524136 -0.378696 0.504224 -0.139731 -0.418971 -0.023536 0.180163 -0.041919 0.932954 -0.664302 -0.056864 1.570588
north 0.280955 -0.192966 -0.000285 0.185054 0.276521 -0.517321 0.576966 -1.315969 0.787780 0.282175 -1.705572 -0.496332 0.578781 -0.993845 -1.331229 -0.397782 1.139393 -0.535690 -1.402522 -0.424489 1.201610 -0.268035 -0.436890 0.406883 -0.786415 -0.908682 -0.626568 -0.026180 -0.453930 -0.158828 -0.027414 -0.053571 0.504781 -1.468239 -0.362043 0.560189 -0.199938 -0.539818 0.371408 -1.858937 -0.597690 0.204810 -0.437820 -0.760163 0.493826 -0.117586 -0.082903 -1.001654 0.565328 1.225095
international 0.594290 -1.017240 -0.931030 0.028863 -0.347669 0.248907 0.501839 -1.255198 0.068813 1.189827 -0.299147 -0.597060 -0.649293 -0.430961 -0.614880 0.020099 0.547160 -0.169199 -0.800874 0.802374 0.628688 0.254705 -0.608944 1.305306 0.284538 0.343290 -0.665904 0.119774 0.670107 -0.188204 -0.354545 0.356278 -0.616461 0.477614 0.056135 -0.079345 -0.888810 -0.212797 -0.688165 -1.271485 -0.795196 -1.187038 -0.127751 0.239422 -1.401002 -0.198285 -0.809750 -0.455540 1.267511 2.369953
term -0.308426 0.225753 0.250477 0.490301 -1.582115 0.152906 0.447405 -1.384163 -0.756501 0.855985 -0.987979 -0.526588 1.132808 0.532291 -0.800689 -0.377463 0.757557 -0.036543 -0.391210 -0.848753 0.644939 -0.567986 -0.802064 0.386513 1.230024 -0.330008 -0.088094 -0.666305 -0.281203 0.680339 0.839005 -0.050537 0.001193 -0.765577 1.229384 -0.166523 -0.563406 0.083311 -0.047854 -0.146366 -0.004630 -0.825208 0.217446 1.086858 -0.233714 0.524656 -0.436597 0.005502 -0.276772 1.779625
we -0.006838 -0.077012 -0.915007 -0.261325 -1.240471 1.790592 1.694961 -0.696914 -0.324413 -1.108829 -0.528805 0.464969 1.490559 -0.687764 -0.553703 -0.853427 -0.124578 0.529065 -0.515037 0.217719 -0.500473 -0.640534 0.382740 -0.291993 0.627078 -1.257105 -0.900591 0.584031 1.130053 -0.138059 0.199138 -0.441587 -0.625866 -1.191272 0.819854 -0.775118 -0.591268 -0.825118 -0.815727 -0.528460 -0.302662 1.214990 0.356914 0.945083 0.005844 0.198484 0.065758 0.361151 0.307582 1.123087
end 0.614309 -0.005602 -0.556917 0.367674 -0.442212 0.302499 0.939620 -1.370974 0.066717 0.002847 -1.681651 -0.274573 0.597673 -0.775205 -0.695591 -1.041823 0.871326 0.289978 -0.607551 -0.544637 -0.666947 -0.764198 -0.626956 0.247567 0.173628 0.110956 0.127080 -0.662314 0.610117 -0.203218 -0.205968 -0.384589 -0.578932 -0.823522 0.817854 -0.099272 -0.659772 -0.681012 0.332817 -0.423071 0.063932 0.258911 -0.786181 0.273478 0.590198 -0.521826 0.131091 -0.438778 0.513579 1.011191
book 0.121463 0.298758 0.294021 1.039515 -1.487797 0.617780 0.998230 -0.722738 -0.293640 -0.724340 -0.903639 0.941718 1.223380 0.537659 0.148503 -0.156242 0.086048 0.741464 0.465081 -0.494313 0.091235 -1.734376 0.725416 0.386495 0.045339 -0.174217 0.171565 -0.406414 0.187740 -0.214916 -0.885005 0.525616 -0.366882 0.464146 0.703048 -0.766531 -1.145610 -0.957528 0.458051 -1.492578 -0.269907 -0.759175 -0.766009 0.127998 -0.579005 -0.409277 -0.459055 -0.593811 0.323612 1.332213
found 0.454356 -0.772919 -0.441779 -0.016926 -0.768139 0.358640 1.639265 -0.636423 0.551836 -0.912235 -1.368660 -0.017239 1.025514 0.308894 0.052785 -0.180426 0.646279 0.075215 -0.152128 0.176789 0.178780 -0.603421 -0.337561 0.246165 -0.347862 -0.506773 -0.435252 0.152876 -0.293904 -0.454301 0.552023 0.358000 -0.758108 -0.767078 0.246740 -0.505871 -0.556748 -0.109590 0.276960 -1.367854 -0.250670 -0.393776 0.414587 0.226724 0.174361 0.089731 -0.812715 -0.705782 -0.477512 1.033969
own 0.524435 -0.012025 -0.313411 0.075217 -0.855536 0.904130 1.138179 -1.283718 0.431507 -0.014431 -1.166125 1.037719 0.377440 -0.201074 -0.859071 0.124935 0.414247 -0.315784 0.887804 0.022316 -0.342032 -0.141368 0.128698 -0.483473 -0.006440 -0.008338 -0.916392 -0.159428 -0.270246 -0.338082 -0.160454 0.131504 -0.737208 -0.114050 0.666508 -0.109129 -0.719820 -0.607390 0.322490 -0.716827 0.206789 -0.075664 0.020032 1.149762 0.103233 -0.830104 -0.015752 -0.275768 -0.433525 2.030114
political 0.417245 0.212646 -0.388665 0.693291 -0.379733 0.003504 0.228820 -1.465302 0.335015 1.098801 -1.644015 -0.622836 0.703123 0.412824 -0.908877 -0.263883 0.799835 0.304805 -0.002333 -0.015766 -0.341953 -0.134734 -1.003599 -0.796000 0.982109 0.697955 0.143261 0.040727 -0.477802 0.142780 -0.736932 0.535955 0.061174 -0.148465 0.560666 0.167215 -0.892259 0.282462 -0.211475 -1.894946 -0.269486 0.082575 1.128930 0.828991 -0.624650 -0.843879 0.433568 0.817213 -0.224973 2.174893
party -0.460966 -1.355237 -0.525684 0.634443 -0.985832 -0.755934 1.141774 -1.315661 0.735263 1.063956 -0.816040 -1.558895 0.796159 -0.420428 -0.523397 -0.402411 0.765456 -0.696880 0.062176 0.346629 -0.573810 -0.462228 -0.615812 -0.623394 0.992414 1.117546 0.731611 -0.417460 -0.333916 -0.489313 -0.837390 0.196200 0.998275 -0.497185 0.847453 -0.224537 -0.944576 -0.292655 -1.007429 -0.554758 -0.658139 -0.682709 1.654295 0.900741 -0.225738 -1.321267 0.611824 -0.460803 0.350936 1.542225
order 0.022821 0.228841 -0.762678 0.090252 -0.355594 0.645340 1.325532 -0.521122 -0.860689 -0.391837 -1.505564 0.590829 0.362655 -0.028539 -1.265271 0.107271 0.466167 0.014660 -0.277899 0.330614 -0.048693 -0.592491 -0.486539 0.102512 0.035060 0.135430 -0.701473 -0.482733 0.369869 -1.315507 0.048724 0.109880 -0.878305 -0.693781 0.604668 0.441959 -0.099298 -0.736062 -0.504544 -0.160522 -0.396027 0.357148 0.873588 1.267107 1.074095 -0.164707 -0.398658 0.526440 0.268521 1.873211
usually 0.599544 -0.014804 -0.946720 -0.255976 -1.370941 0.305826 0.899392 -1.213180 -0.098899 -0.067423 -0.926842 -0.251024 0.126005 -0.088428 -0.051008 -0.883813 0.498316 0.246799 0.260916 -0.423329 -0.229871 -0.736201 -0.865344 0.444882 -0.074304 -0.417784 -0.524392 -0.550399 -0.495891 0.470132 1.187776 0.090018 -0.601546 -1.304065 0.603039 -0.050931 -0.983510 -0.890905 0.110818 -0.268065 0.366423 -0.893889 0.440176 0.758517 0.758812 0.111255 -0.669334 -0.006444 0.081629 1.064405
president -0.581061 0.177212 -0.724991 0.915027 0.009277 -1.110960 0.988446 -1.155159 0.278417 1.159934 -0.576142 -1.461023 0.874860 0.126875 0.282619 -0.517118 0.636419 -0.121121 -0.203487 -0.378116 1.271336 -0.608682 -0.469763 -0.618172 -0.502102 0.095854 -0.760062 -0.713980 1.100562 -0.122697 -2.146381 0.460436 0.516286 -0.612508 1.110577 -1.214139 -0.314348 -1.483394 -0.837624 -0.244811 0.600770 -0.932674 1.163747 0.960602 -0.302888 -0.598691 0.949986 0.033635 0.080809 1.726950
church -0.309443 -1.098041 -0.821197 -0.259299 -1.729821 0.819185 0.745062 -0.552858 -0.299423 0.026637 -1.479143 -0.539902 2.087452 -0.113771 0.167451 1.181654 1.612036 0.671939 1.166090 -0.648193 0.180058 -0.112002 -0.707756 -0.135558 0.235643 0.949495 -0.206083 0.113540 0.427161 -1.154069 -0.256275 -0.261677 0.278592 0.044971 -0.045293 0.408933 0.206743 -1.253969 0.442193 -0.843391 -0.769030 -0.493553 0.333051 -0.607462 0.441596 -0.426609 -0.093400 -0.149793 0.473855 1.883701
